digraph Tree {
node [shape=box, style="filled, rounded", color="black", fontname=helvetica] ;
edge [fontname=helvetica] ;
0 [label="Profit Margin <= 2.25\nentropy = 2.0\nsamples = 849\nvalue = [219, 205, 219, 206]\nclass = 0", fillcolor="#ffffff"] ;
1 [label="PEG <= -5.84\nentropy = 2.0\nsamples = 820\nvalue = [207, 203, 211, 199]\nclass = 2", fillcolor="#fefeff"] ;
0 -> 1 [labeldistance=2.5, labelangle=45, headlabel="True"] ;
2 [label="Cash Ratio <= -0.32\nentropy = 1.38\nsamples = 17\nvalue = [4, 10, 0, 3]\nclass = 1", fillcolor="#aaf3a4"] ;
1 -> 2 ;
3 [label="PEG <= -7.12\nentropy = 0.59\nsamples = 7\nvalue = [0, 6, 0, 1]\nclass = 1", fillcolor="#66e95a"] ;
2 -> 3 ;
4 [label="entropy = 0.0\nsamples = 5\nvalue = [0, 5, 0, 0]\nclass = 1", fillcolor="#47e539"] ;
3 -> 4 ;
5 [label="PEG <= -6.69\nentropy = 1.0\nsamples = 2\nvalue = [0, 1, 0, 1]\nclass = 1", fillcolor="#ffffff"] ;
3 -> 5 ;
6 [label="entropy = 0.0\nsamples = 1\nvalue = [0, 0, 0, 1]\nclass = 3", fillcolor="#d739e5"] ;
5 -> 6 ;
7 [label="entropy = 0.0\nsamples = 1\nvalue = [0, 1, 0, 0]\nclass = 1", fillcolor="#47e539"] ;
5 -> 7 ;
8 [label="Operating Margin <= 0.6\nentropy = 1.52\nsamples = 10\nvalue = [4, 4, 0, 2]\nclass = 0", fillcolor="#ffffff"] ;
2 -> 8 ;
9 [label="PEG <= -9.86\nentropy = 1.41\nsamples = 8\nvalue = [3, 4, 0, 1]\nclass = 1", fillcolor="#dafad7"] ;
8 -> 9 ;
10 [label="After Tax ROE <= -0.34\nentropy = 0.92\nsamples = 3\nvalue = [2, 1, 0, 0]\nclass = 0", fillcolor="#f2c09c"] ;
9 -> 10 ;
11 [label="entropy = 0.0\nsamples = 1\nvalue = [0, 1, 0, 0]\nclass = 1", fillcolor="#47e539"] ;
10 -> 11 ;
12 [label="entropy = 0.0\nsamples = 2\nvalue = [2, 0, 0, 0]\nclass = 0", fillcolor="#e58139"] ;
10 -> 12 ;
13 [label="Gross Margin <= 1.22\nentropy = 1.37\nsamples = 5\nvalue = [1, 3, 0, 1]\nclass = 1", fillcolor="#a3f29c"] ;
9 -> 13 ;
14 [label="Cash Ratio <= 0.77\nentropy = 0.92\nsamples = 3\nvalue = [1, 2, 0, 0]\nclass = 1", fillcolor="#a3f29c"] ;
13 -> 14 ;
15 [label="entropy = 0.0\nsamples = 2\nvalue = [0, 2, 0, 0]\nclass = 1", fillcolor="#47e539"] ;
14 -> 15 ;
16 [label="entropy = 0.0\nsamples = 1\nvalue = [1, 0, 0, 0]\nclass = 0", fillcolor="#e58139"] ;
14 -> 16 ;
17 [label="Profit Margin <= 0.0\nentropy = 1.0\nsamples = 2\nvalue = [0, 1, 0, 1]\nclass = 1", fillcolor="#ffffff"] ;
13 -> 17 ;
18 [label="entropy = 0.0\nsamples = 1\nvalue = [0, 1, 0, 0]\nclass = 1", fillcolor="#47e539"] ;
17 -> 18 ;
19 [label="entropy = 0.0\nsamples = 1\nvalue = [0, 0, 0, 1]\nclass = 3", fillcolor="#d739e5"] ;
17 -> 19 ;
20 [label="Gross Margin <= 1.3\nentropy = 1.0\nsamples = 2\nvalue = [1, 0, 0, 1]\nclass = 0", fillcolor="#ffffff"] ;
8 -> 20 ;
21 [label="entropy = 0.0\nsamples = 1\nvalue = [1, 0, 0, 0]\nclass = 0", fillcolor="#e58139"] ;
20 -> 21 ;
22 [label="entropy = 0.0\nsamples = 1\nvalue = [0, 0, 0, 1]\nclass = 3", fillcolor="#d739e5"] ;
20 -> 22 ;
23 [label="After Tax ROE <= 16.27\nentropy = 2.0\nsamples = 803\nvalue = [203, 193, 211, 196]\nclass = 2", fillcolor="#fcfeff"] ;
1 -> 23 ;
24 [label="After Tax ROE <= 10.57\nentropy = 2.0\nsamples = 797\nvalue = [202, 193, 206, 196]\nclass = 2", fillcolor="#fefeff"] ;
23 -> 24 ;
25 [label="Operating Margin <= 1.58\nentropy = 2.0\nsamples = 787\nvalue = [201, 188, 203, 195]\nclass = 2", fillcolor="#feffff"] ;
24 -> 25 ;
26 [label="Operating Margin <= -0.16\nentropy = 2.0\nsamples = 763\nvalue = [198, 180, 199, 186]\nclass = 2", fillcolor="#ffffff"] ;
25 -> 26 ;
27 [label="Profit Margin <= 0.62\nentropy = 1.99\nsamples = 357\nvalue = [93, 72, 87, 105]\nclass = 3", fillcolor="#fdf6fe"] ;
26 -> 27 ;
28 [label="PE <= 0.03\nentropy = 1.98\nsamples = 330\nvalue = [89, 61, 82, 98]\nclass = 3", fillcolor="#fef8fe"] ;
27 -> 28 ;
29 [label="Profit Margin <= -0.7\nentropy = 1.95\nsamples = 168\nvalue = [54, 27, 35, 52]\nclass = 0", fillcolor="#fffdfc"] ;
28 -> 29 ;
30 [label="Profit Margin <= -0.85\nentropy = 1.7\nsamples = 31\nvalue = [16, 3, 4, 8]\nclass = 0", fillcolor="#f6d3ba"] ;
29 -> 30 ;
31 [label="PE <= -2.25\nentropy = 1.79\nsamples = 11\nvalue = [2, 1, 3, 5]\nclass = 3", fillcolor="#f5cef8"] ;
30 -> 31 ;
32 [label="Gross Margin <= -0.48\nentropy = 0.92\nsamples = 6\nvalue = [0, 0, 2, 4]\nclass = 3", fillcolor="#eb9cf2"] ;
31 -> 32 ;
33 [label="entropy = 0.0\nsamples = 1\nvalue = [0, 0, 1, 0]\nclass = 2", fillcolor="#399de5"] ;
32 -> 33 ;
34 [label="Cash Ratio <= -0.78\nentropy = 0.72\nsamples = 5\nvalue = [0, 0, 1, 4]\nclass = 3", fillcolor="#e16aec"] ;
32 -> 34 ;
35 [label="entropy = 0.0\nsamples = 1\nvalue = [0, 0, 1, 0]\nclass = 2", fillcolor="#399de5"] ;
34 -> 35 ;
36 [label="entropy = 0.0\nsamples = 4\nvalue = [0, 0, 0, 4]\nclass = 3", fillcolor="#d739e5"] ;
34 -> 36 ;
37 [label="Cash Ratio <= -0.35\nentropy = 1.92\nsamples = 5\nvalue = [2, 1, 1, 1]\nclass = 0", fillcolor="#f8e0ce"] ;
31 -> 37 ;
38 [label="After Tax ROE <= 1.67\nentropy = 1.0\nsamples = 2\nvalue = [0, 1, 1, 0]\nclass = 1", fillcolor="#ffffff"] ;
37 -> 38 ;
39 [label="entropy = 0.0\nsamples = 1\nvalue = [0, 1, 0, 0]\nclass = 1", fillcolor="#47e539"] ;
38 -> 39 ;
40 [label="entropy = 0.0\nsamples = 1\nvalue = [0, 0, 1, 0]\nclass = 2", fillcolor="#399de5"] ;
38 -> 40 ;
41 [label="Operating Margin <= -1.18\nentropy = 0.92\nsamples = 3\nvalue = [2, 0, 0, 1]\nclass = 0", fillcolor="#f2c09c"] ;
37 -> 41 ;
42 [label="entropy = 0.0\nsamples = 1\nvalue = [0, 0, 0, 1]\nclass = 3", fillcolor="#d739e5"] ;
41 -> 42 ;
43 [label="entropy = 0.0\nsamples = 2\nvalue = [2, 0, 0, 0]\nclass = 0", fillcolor="#e58139"] ;
41 -> 43 ;
44 [label="Gross Margin <= 1.3\nentropy = 1.32\nsamples = 20\nvalue = [14, 2, 1, 3]\nclass = 0", fillcolor="#eead7f"] ;
30 -> 44 ;
45 [label="Operating Margin <= -1.1\nentropy = 1.19\nsamples = 19\nvalue = [14, 1, 1, 3]\nclass = 0", fillcolor="#eda877"] ;
44 -> 45 ;
46 [label="entropy = 0.0\nsamples = 1\nvalue = [0, 0, 0, 1]\nclass = 3", fillcolor="#d739e5"] ;
45 -> 46 ;
47 [label="Cash Ratio <= 0.25\nentropy = 1.1\nsamples = 18\nvalue = [14, 1, 1, 2]\nclass = 0", fillcolor="#eca06a"] ;
45 -> 47 ;
48 [label="Cash Ratio <= -0.5\nentropy = 1.42\nsamples = 12\nvalue = [8, 1, 1, 2]\nclass = 0", fillcolor="#efb388"] ;
47 -> 48 ;
49 [label="Cash Ratio <= -0.84\nentropy = 1.38\nsamples = 7\nvalue = [4, 1, 0, 2]\nclass = 0", fillcolor="#f5cdb0"] ;
48 -> 49 ;
50 [label="Cash Ratio <= -0.88\nentropy = 1.0\nsamples = 2\nvalue = [0, 1, 0, 1]\nclass = 1", fillcolor="#ffffff"] ;
49 -> 50 ;
51 [label="entropy = 0.0\nsamples = 1\nvalue = [0, 0, 0, 1]\nclass = 3", fillcolor="#d739e5"] ;
50 -> 51 ;
52 [label="entropy = 0.0\nsamples = 1\nvalue = [0, 1, 0, 0]\nclass = 1", fillcolor="#47e539"] ;
50 -> 52 ;
53 [label="PEG <= 0.13\nentropy = 0.72\nsamples = 5\nvalue = [4, 0, 0, 1]\nclass = 0", fillcolor="#eca06a"] ;
49 -> 53 ;
54 [label="PEG <= -0.08\nentropy = 0.92\nsamples = 3\nvalue = [2, 0, 0, 1]\nclass = 0", fillcolor="#f2c09c"] ;
53 -> 54 ;
55 [label="entropy = 0.0\nsamples = 1\nvalue = [0, 0, 0, 1]\nclass = 3", fillcolor="#d739e5"] ;
54 -> 55 ;
56 [label="entropy = 0.0\nsamples = 2\nvalue = [2, 0, 0, 0]\nclass = 0", fillcolor="#e58139"] ;
54 -> 56 ;
57 [label="entropy = 0.0\nsamples = 2\nvalue = [2, 0, 0, 0]\nclass = 0", fillcolor="#e58139"] ;
53 -> 57 ;
58 [label="Gross Margin <= -0.57\nentropy = 0.72\nsamples = 5\nvalue = [4, 0, 1, 0]\nclass = 0", fillcolor="#eca06a"] ;
48 -> 58 ;
59 [label="entropy = 0.0\nsamples = 3\nvalue = [3, 0, 0, 0]\nclass = 0", fillcolor="#e58139"] ;
58 -> 59 ;
60 [label="After Tax ROE <= -0.49\nentropy = 1.0\nsamples = 2\nvalue = [1, 0, 1, 0]\nclass = 0", fillcolor="#ffffff"] ;
58 -> 60 ;
61 [label="entropy = 0.0\nsamples = 1\nvalue = [0, 0, 1, 0]\nclass = 2", fillcolor="#399de5"] ;
60 -> 61 ;
62 [label="entropy = 0.0\nsamples = 1\nvalue = [1, 0, 0, 0]\nclass = 0", fillcolor="#e58139"] ;
60 -> 62 ;
63 [label="entropy = 0.0\nsamples = 6\nvalue = [6, 0, 0, 0]\nclass = 0", fillcolor="#e58139"] ;
47 -> 63 ;
64 [label="entropy = 0.0\nsamples = 1\nvalue = [0, 1, 0, 0]\nclass = 1", fillcolor="#47e539"] ;
44 -> 64 ;
65 [label="After Tax ROE <= 6.16\nentropy = 1.96\nsamples = 137\nvalue = [38, 24, 31, 44]\nclass = 3", fillcolor="#fdf3fd"] ;
29 -> 65 ;
66 [label="Profit Margin <= -0.31\nentropy = 1.96\nsamples = 135\nvalue = [37, 23, 31, 44]\nclass = 3", fillcolor="#fcf1fd"] ;
65 -> 66 ;
67 [label="Gross Margin <= -0.62\nentropy = 1.96\nsamples = 56\nvalue = [18, 14, 9, 15]\nclass = 0", fillcolor="#fdf6f1"] ;
66 -> 67 ;
68 [label="Operating Margin <= -0.78\nentropy = 1.71\nsamples = 22\nvalue = [9, 4, 1, 8]\nclass = 0", fillcolor="#fdf6f1"] ;
67 -> 68 ;
69 [label="PEG <= -1.64\nentropy = 1.66\nsamples = 9\nvalue = [1, 2, 1, 5]\nclass = 3", fillcolor="#eeaaf4"] ;
68 -> 69 ;
70 [label="entropy = 0.0\nsamples = 1\nvalue = [1, 0, 0, 0]\nclass = 0", fillcolor="#e58139"] ;
69 -> 70 ;
71 [label="PE <= -4.92\nentropy = 1.3\nsamples = 8\nvalue = [0, 2, 1, 5]\nclass = 3", fillcolor="#eb9cf2"] ;
69 -> 71 ;
72 [label="entropy = 0.0\nsamples = 1\nvalue = [0, 1, 0, 0]\nclass = 1", fillcolor="#47e539"] ;
71 -> 72 ;
73 [label="PEG <= 0.11\nentropy = 1.15\nsamples = 7\nvalue = [0, 1, 1, 5]\nclass = 3", fillcolor="#e47bee"] ;
71 -> 73 ;
74 [label="PE <= -1.89\nentropy = 0.65\nsamples = 6\nvalue = [0, 0, 1, 5]\nclass = 3", fillcolor="#df61ea"] ;
73 -> 74 ;
75 [label="entropy = 0.0\nsamples = 2\nvalue = [0, 0, 0, 2]\nclass = 3", fillcolor="#d739e5"] ;
74 -> 75 ;
76 [label="Operating Margin <= -0.82\nentropy = 0.81\nsamples = 4\nvalue = [0, 0, 1, 3]\nclass = 3", fillcolor="#e47bee"] ;
74 -> 76 ;
77 [label="PE <= -0.38\nentropy = 1.0\nsamples = 2\nvalue = [0, 0, 1, 1]\nclass = 2", fillcolor="#ffffff"] ;
76 -> 77 ;
78 [label="entropy = 0.0\nsamples = 1\nvalue = [0, 0, 1, 0]\nclass = 2", fillcolor="#399de5"] ;
77 -> 78 ;
79 [label="entropy = 0.0\nsamples = 1\nvalue = [0, 0, 0, 1]\nclass = 3", fillcolor="#d739e5"] ;
77 -> 79 ;
80 [label="entropy = 0.0\nsamples = 2\nvalue = [0, 0, 0, 2]\nclass = 3", fillcolor="#d739e5"] ;
76 -> 80 ;
81 [label="entropy = 0.0\nsamples = 1\nvalue = [0, 1, 0, 0]\nclass = 1", fillcolor="#47e539"] ;
73 -> 81 ;
82 [label="Operating Margin <= -0.66\nentropy = 1.33\nsamples = 13\nvalue = [8, 2, 0, 3]\nclass = 0", fillcolor="#f2c09c"] ;
68 -> 82 ;
83 [label="entropy = 0.0\nsamples = 2\nvalue = [0, 0, 0, 2]\nclass = 3", fillcolor="#d739e5"] ;
82 -> 83 ;
84 [label="After Tax ROE <= 2.06\nentropy = 1.1\nsamples = 11\nvalue = [8, 2, 0, 1]\nclass = 0", fillcolor="#eeab7b"] ;
82 -> 84 ;
85 [label="Profit Margin <= -0.41\nentropy = 0.5\nsamples = 9\nvalue = [8, 1, 0, 0]\nclass = 0", fillcolor="#e89152"] ;
84 -> 85 ;
86 [label="entropy = 0.0\nsamples = 7\nvalue = [7, 0, 0, 0]\nclass = 0", fillcolor="#e58139"] ;
85 -> 86 ;
87 [label="After Tax ROE <= -0.12\nentropy = 1.0\nsamples = 2\nvalue = [1, 1, 0, 0]\nclass = 0", fillcolor="#ffffff"] ;
85 -> 87 ;
88 [label="entropy = 0.0\nsamples = 1\nvalue = [1, 0, 0, 0]\nclass = 0", fillcolor="#e58139"] ;
87 -> 88 ;
89 [label="entropy = 0.0\nsamples = 1\nvalue = [0, 1, 0, 0]\nclass = 1", fillcolor="#47e539"] ;
87 -> 89 ;
90 [label="Cash Ratio <= -0.43\nentropy = 1.0\nsamples = 2\nvalue = [0, 1, 0, 1]\nclass = 1", fillcolor="#ffffff"] ;
84 -> 90 ;
91 [label="entropy = 0.0\nsamples = 1\nvalue = [0, 1, 0, 0]\nclass = 1", fillcolor="#47e539"] ;
90 -> 91 ;
92 [label="entropy = 0.0\nsamples = 1\nvalue = [0, 0, 0, 1]\nclass = 3", fillcolor="#d739e5"] ;
90 -> 92 ;
93 [label="PE <= -2.21\nentropy = 1.99\nsamples = 34\nvalue = [9, 10, 8, 7]\nclass = 1", fillcolor="#f8fef7"] ;
67 -> 93 ;
94 [label="After Tax ROE <= -0.9\nentropy = 1.0\nsamples = 4\nvalue = [2, 0, 2, 0]\nclass = 0", fillcolor="#ffffff"] ;
93 -> 94 ;
95 [label="entropy = 0.0\nsamples = 1\nvalue = [1, 0, 0, 0]\nclass = 0", fillcolor="#e58139"] ;
94 -> 95 ;
96 [label="After Tax ROE <= 0.04\nentropy = 0.92\nsamples = 3\nvalue = [1, 0, 2, 0]\nclass = 2", fillcolor="#9ccef2"] ;
94 -> 96 ;
97 [label="entropy = 0.0\nsamples = 2\nvalue = [0, 0, 2, 0]\nclass = 2", fillcolor="#399de5"] ;
96 -> 97 ;
98 [label="entropy = 0.0\nsamples = 1\nvalue = [1, 0, 0, 0]\nclass = 0", fillcolor="#e58139"] ;
96 -> 98 ;
99 [label="After Tax ROE <= 1.34\nentropy = 1.97\nsamples = 30\nvalue = [7, 10, 6, 7]\nclass = 1", fillcolor="#e7fce5"] ;
93 -> 99 ;
100 [label="Gross Margin <= -0.22\nentropy = 1.95\nsamples = 28\nvalue = [5, 10, 6, 7]\nclass = 1", fillcolor="#e5fbe3"] ;
99 -> 100 ;
101 [label="Cash Ratio <= 0.26\nentropy = 1.93\nsamples = 15\nvalue = [4, 5, 4, 2]\nclass = 1", fillcolor="#eefded"] ;
100 -> 101 ;
102 [label="PE <= -0.61\nentropy = 1.86\nsamples = 11\nvalue = [2, 5, 2, 2]\nclass = 1", fillcolor="#c2f6bd"] ;
101 -> 102 ;
103 [label="Cash Ratio <= -0.28\nentropy = 1.0\nsamples = 2\nvalue = [1, 0, 0, 1]\nclass = 0", fillcolor="#ffffff"] ;
102 -> 103 ;
104 [label="entropy = 0.0\nsamples = 1\nvalue = [1, 0, 0, 0]\nclass = 0", fillcolor="#e58139"] ;
103 -> 104 ;
105 [label="entropy = 0.0\nsamples = 1\nvalue = [0, 0, 0, 1]\nclass = 3", fillcolor="#d739e5"] ;
103 -> 105 ;
106 [label="PEG <= 0.19\nentropy = 1.66\nsamples = 9\nvalue = [1, 5, 2, 1]\nclass = 1", fillcolor="#b0f4aa"] ;
102 -> 106 ;
107 [label="entropy = 0.0\nsamples = 5\nvalue = [0, 5, 0, 0]\nclass = 1", fillcolor="#47e539"] ;
106 -> 107 ;
108 [label="After Tax ROE <= 0.34\nentropy = 1.5\nsamples = 4\nvalue = [1, 0, 2, 1]\nclass = 2", fillcolor="#bddef6"] ;
106 -> 108 ;
109 [label="PE <= -0.33\nentropy = 0.92\nsamples = 3\nvalue = [0, 0, 2, 1]\nclass = 2", fillcolor="#9ccef2"] ;
108 -> 109 ;
110 [label="entropy = 0.0\nsamples = 1\nvalue = [0, 0, 0, 1]\nclass = 3", fillcolor="#d739e5"] ;
109 -> 110 ;
111 [label="entropy = 0.0\nsamples = 2\nvalue = [0, 0, 2, 0]\nclass = 2", fillcolor="#399de5"] ;
109 -> 111 ;
112 [label="entropy = 0.0\nsamples = 1\nvalue = [1, 0, 0, 0]\nclass = 0", fillcolor="#e58139"] ;
108 -> 112 ;
113 [label="Operating Margin <= -0.62\nentropy = 1.0\nsamples = 4\nvalue = [2, 0, 2, 0]\nclass = 0", fillcolor="#ffffff"] ;
101 -> 113 ;
114 [label="PEG <= 0.86\nentropy = 0.92\nsamples = 3\nvalue = [1, 0, 2, 0]\nclass = 2", fillcolor="#9ccef2"] ;
113 -> 114 ;
115 [label="entropy = 0.0\nsamples = 1\nvalue = [1, 0, 0, 0]\nclass = 0", fillcolor="#e58139"] ;
114 -> 115 ;
116 [label="entropy = 0.0\nsamples = 2\nvalue = [0, 0, 2, 0]\nclass = 2", fillcolor="#399de5"] ;
114 -> 116 ;
117 [label="entropy = 0.0\nsamples = 1\nvalue = [1, 0, 0, 0]\nclass = 0", fillcolor="#e58139"] ;
113 -> 117 ;
118 [label="Profit Margin <= -0.43\nentropy = 1.76\nsamples = 13\nvalue = [1, 5, 2, 5]\nclass = 1", fillcolor="#ffffff"] ;
100 -> 118 ;
119 [label="Operating Margin <= -0.67\nentropy = 1.35\nsamples = 9\nvalue = [1, 3, 0, 5]\nclass = 3", fillcolor="#f2bdf6"] ;
118 -> 119 ;
120 [label="entropy = 0.0\nsamples = 1\nvalue = [1, 0, 0, 0]\nclass = 0", fillcolor="#e58139"] ;
119 -> 120 ;
121 [label="PEG <= -1.45\nentropy = 0.95\nsamples = 8\nvalue = [0, 3, 0, 5]\nclass = 3", fillcolor="#efb0f5"] ;
119 -> 121 ;
122 [label="entropy = 0.0\nsamples = 1\nvalue = [0, 1, 0, 0]\nclass = 1", fillcolor="#47e539"] ;
121 -> 122 ;
123 [label="PE <= -0.17\nentropy = 0.86\nsamples = 7\nvalue = [0, 2, 0, 5]\nclass = 3", fillcolor="#e788ef"] ;
121 -> 123 ;
124 [label="PE <= -0.51\nentropy = 0.97\nsamples = 5\nvalue = [0, 2, 0, 3]\nclass = 3", fillcolor="#f2bdf6"] ;
123 -> 124 ;
125 [label="entropy = 0.0\nsamples = 3\nvalue = [0, 0, 0, 3]\nclass = 3", fillcolor="#d739e5"] ;
124 -> 125 ;
126 [label="entropy = 0.0\nsamples = 2\nvalue = [0, 2, 0, 0]\nclass = 1", fillcolor="#47e539"] ;
124 -> 126 ;
127 [label="entropy = 0.0\nsamples = 2\nvalue = [0, 0, 0, 2]\nclass = 3", fillcolor="#d739e5"] ;
123 -> 127 ;
128 [label="PEG <= -0.08\nentropy = 1.0\nsamples = 4\nvalue = [0, 2, 2, 0]\nclass = 1", fillcolor="#ffffff"] ;
118 -> 128 ;
129 [label="entropy = 0.0\nsamples = 1\nvalue = [0, 0, 1, 0]\nclass = 2", fillcolor="#399de5"] ;
128 -> 129 ;
130 [label="PEG <= 2.28\nentropy = 0.92\nsamples = 3\nvalue = [0, 2, 1, 0]\nclass = 1", fillcolor="#a3f29c"] ;
128 -> 130 ;
131 [label="entropy = 0.0\nsamples = 2\nvalue = [0, 2, 0, 0]\nclass = 1", fillcolor="#47e539"] ;
130 -> 131 ;
132 [label="entropy = 0.0\nsamples = 1\nvalue = [0, 0, 1, 0]\nclass = 2", fillcolor="#399de5"] ;
130 -> 132 ;
133 [label="entropy = 0.0\nsamples = 2\nvalue = [2, 0, 0, 0]\nclass = 0", fillcolor="#e58139"] ;
99 -> 133 ;
134 [label="After Tax ROE <= 3.28\nentropy = 1.9\nsamples = 79\nvalue = [19, 9, 22, 29]\nclass = 3", fillcolor="#fae7fc"] ;
66 -> 134 ;
135 [label="PEG <= -0.05\nentropy = 1.9\nsamples = 74\nvalue = [18, 9, 19, 28]\nclass = 3", fillcolor="#f8dffb"] ;
134 -> 135 ;
136 [label="Cash Ratio <= 1.29\nentropy = 1.95\nsamples = 28\nvalue = [5, 7, 6, 10]\nclass = 3", fillcolor="#f9e3fb"] ;
135 -> 136 ;
137 [label="Profit Margin <= -0.07\nentropy = 1.87\nsamples = 23\nvalue = [3, 7, 4, 9]\nclass = 3", fillcolor="#fae6fc"] ;
136 -> 137 ;
138 [label="PEG <= -0.55\nentropy = 1.24\nsamples = 13\nvalue = [0, 4, 1, 8]\nclass = 3", fillcolor="#eda7f3"] ;
137 -> 138 ;
139 [label="Gross Margin <= -0.61\nentropy = 0.92\nsamples = 3\nvalue = [0, 0, 1, 2]\nclass = 3", fillcolor="#eb9cf2"] ;
138 -> 139 ;
140 [label="entropy = 0.0\nsamples = 1\nvalue = [0, 0, 1, 0]\nclass = 2", fillcolor="#399de5"] ;
139 -> 140 ;
141 [label="entropy = 0.0\nsamples = 2\nvalue = [0, 0, 0, 2]\nclass = 3", fillcolor="#d739e5"] ;
139 -> 141 ;
142 [label="PE <= -2.85\nentropy = 0.97\nsamples = 10\nvalue = [0, 4, 0, 6]\nclass = 3", fillcolor="#f2bdf6"] ;
138 -> 142 ;
143 [label="entropy = 0.0\nsamples = 1\nvalue = [0, 1, 0, 0]\nclass = 1", fillcolor="#47e539"] ;
142 -> 143 ;
144 [label="Gross Margin <= 0.13\nentropy = 0.92\nsamples = 9\nvalue = [0, 3, 0, 6]\nclass = 3", fillcolor="#eb9cf2"] ;
142 -> 144 ;
145 [label="After Tax ROE <= 0.32\nentropy = 0.95\nsamples = 8\nvalue = [0, 3, 0, 5]\nclass = 3", fillcolor="#efb0f5"] ;
144 -> 145 ;
146 [label="Cash Ratio <= -0.69\nentropy = 0.97\nsamples = 5\nvalue = [0, 3, 0, 2]\nclass = 1", fillcolor="#c2f6bd"] ;
145 -> 146 ;
147 [label="entropy = 0.0\nsamples = 2\nvalue = [0, 2, 0, 0]\nclass = 1", fillcolor="#47e539"] ;
146 -> 147 ;
148 [label="Profit Margin <= -0.13\nentropy = 0.92\nsamples = 3\nvalue = [0, 1, 0, 2]\nclass = 3", fillcolor="#eb9cf2"] ;
146 -> 148 ;
149 [label="entropy = 0.0\nsamples = 2\nvalue = [0, 0, 0, 2]\nclass = 3", fillcolor="#d739e5"] ;
148 -> 149 ;
150 [label="entropy = 0.0\nsamples = 1\nvalue = [0, 1, 0, 0]\nclass = 1", fillcolor="#47e539"] ;
148 -> 150 ;
151 [label="entropy = 0.0\nsamples = 3\nvalue = [0, 0, 0, 3]\nclass = 3", fillcolor="#d739e5"] ;
145 -> 151 ;
152 [label="entropy = 0.0\nsamples = 1\nvalue = [0, 0, 0, 1]\nclass = 3", fillcolor="#d739e5"] ;
144 -> 152 ;
153 [label="Cash Ratio <= -0.3\nentropy = 1.9\nsamples = 10\nvalue = [3, 3, 3, 1]\nclass = 0", fillcolor="#ffffff"] ;
137 -> 153 ;
154 [label="entropy = 0.0\nsamples = 2\nvalue = [0, 2, 0, 0]\nclass = 1", fillcolor="#47e539"] ;
153 -> 154 ;
155 [label="Profit Margin <= 0.39\nentropy = 1.81\nsamples = 8\nvalue = [3, 1, 3, 1]\nclass = 0", fillcolor="#ffffff"] ;
153 -> 155 ;
156 [label="After Tax ROE <= -0.2\nentropy = 0.97\nsamples = 5\nvalue = [2, 0, 3, 0]\nclass = 2", fillcolor="#bddef6"] ;
155 -> 156 ;
157 [label="After Tax ROE <= -0.6\nentropy = 0.92\nsamples = 3\nvalue = [2, 0, 1, 0]\nclass = 0", fillcolor="#f2c09c"] ;
156 -> 157 ;
158 [label="entropy = 0.0\nsamples = 1\nvalue = [0, 0, 1, 0]\nclass = 2", fillcolor="#399de5"] ;
157 -> 158 ;
159 [label="entropy = 0.0\nsamples = 2\nvalue = [2, 0, 0, 0]\nclass = 0", fillcolor="#e58139"] ;
157 -> 159 ;
160 [label="entropy = 0.0\nsamples = 2\nvalue = [0, 0, 2, 0]\nclass = 2", fillcolor="#399de5"] ;
156 -> 160 ;
161 [label="After Tax ROE <= -0.42\nentropy = 1.58\nsamples = 3\nvalue = [1, 1, 0, 1]\nclass = 0", fillcolor="#ffffff"] ;
155 -> 161 ;
162 [label="PE <= -0.45\nentropy = 1.0\nsamples = 2\nvalue = [1, 1, 0, 0]\nclass = 0", fillcolor="#ffffff"] ;
161 -> 162 ;
163 [label="entropy = 0.0\nsamples = 1\nvalue = [0, 1, 0, 0]\nclass = 1", fillcolor="#47e539"] ;
162 -> 163 ;
164 [label="entropy = 0.0\nsamples = 1\nvalue = [1, 0, 0, 0]\nclass = 0", fillcolor="#e58139"] ;
162 -> 164 ;
165 [label="entropy = 0.0\nsamples = 1\nvalue = [0, 0, 0, 1]\nclass = 3", fillcolor="#d739e5"] ;
161 -> 165 ;
166 [label="PE <= -0.14\nentropy = 1.52\nsamples = 5\nvalue = [2, 0, 2, 1]\nclass = 0", fillcolor="#ffffff"] ;
136 -> 166 ;
167 [label="PEG <= -0.43\nentropy = 1.5\nsamples = 4\nvalue = [2, 0, 1, 1]\nclass = 0", fillcolor="#f6d5bd"] ;
166 -> 167 ;
168 [label="entropy = 0.0\nsamples = 1\nvalue = [0, 0, 0, 1]\nclass = 3", fillcolor="#d739e5"] ;
167 -> 168 ;
169 [label="Profit Margin <= -0.27\nentropy = 0.92\nsamples = 3\nvalue = [2, 0, 1, 0]\nclass = 0", fillcolor="#f2c09c"] ;
167 -> 169 ;
170 [label="entropy = 0.0\nsamples = 1\nvalue = [0, 0, 1, 0]\nclass = 2", fillcolor="#399de5"] ;
169 -> 170 ;
171 [label="entropy = 0.0\nsamples = 2\nvalue = [2, 0, 0, 0]\nclass = 0", fillcolor="#e58139"] ;
169 -> 171 ;
172 [label="entropy = 0.0\nsamples = 1\nvalue = [0, 0, 1, 0]\nclass = 2", fillcolor="#399de5"] ;
166 -> 172 ;
173 [label="Operating Margin <= -0.26\nentropy = 1.76\nsamples = 46\nvalue = [13, 2, 13, 18]\nclass = 3", fillcolor="#f9e1fb"] ;
135 -> 173 ;
174 [label="PE <= -4.2\nentropy = 1.53\nsamples = 23\nvalue = [10, 0, 5, 8]\nclass = 0", fillcolor="#fceee5"] ;
173 -> 174 ;
175 [label="Operating Margin <= -0.92\nentropy = 1.0\nsamples = 2\nvalue = [0, 0, 1, 1]\nclass = 2", fillcolor="#ffffff"] ;
174 -> 175 ;
176 [label="entropy = 0.0\nsamples = 1\nvalue = [0, 0, 0, 1]\nclass = 3", fillcolor="#d739e5"] ;
175 -> 176 ;
177 [label="entropy = 0.0\nsamples = 1\nvalue = [0, 0, 1, 0]\nclass = 2", fillcolor="#399de5"] ;
175 -> 177 ;
178 [label="PEG <= 3.0\nentropy = 1.49\nsamples = 21\nvalue = [10, 0, 4, 7]\nclass = 0", fillcolor="#f9e4d5"] ;
174 -> 178 ;
179 [label="PEG <= 0.13\nentropy = 1.51\nsamples = 20\nvalue = [9, 0, 4, 7]\nclass = 0", fillcolor="#fbece1"] ;
178 -> 179 ;
180 [label="Profit Margin <= 0.05\nentropy = 0.81\nsamples = 4\nvalue = [1, 0, 0, 3]\nclass = 3", fillcolor="#e47bee"] ;
179 -> 180 ;
181 [label="entropy = 0.0\nsamples = 2\nvalue = [0, 0, 0, 2]\nclass = 3", fillcolor="#d739e5"] ;
180 -> 181 ;
182 [label="Cash Ratio <= -0.74\nentropy = 1.0\nsamples = 2\nvalue = [1, 0, 0, 1]\nclass = 0", fillcolor="#ffffff"] ;
180 -> 182 ;
183 [label="entropy = 0.0\nsamples = 1\nvalue = [0, 0, 0, 1]\nclass = 3", fillcolor="#d739e5"] ;
182 -> 183 ;
184 [label="entropy = 0.0\nsamples = 1\nvalue = [1, 0, 0, 0]\nclass = 0", fillcolor="#e58139"] ;
182 -> 184 ;
185 [label="After Tax ROE <= 0.81\nentropy = 1.5\nsamples = 16\nvalue = [8, 0, 4, 4]\nclass = 0", fillcolor="#f6d5bd"] ;
179 -> 185 ;
186 [label="Operating Margin <= -0.83\nentropy = 1.46\nsamples = 15\nvalue = [8, 0, 4, 3]\nclass = 0", fillcolor="#f6d1b7"] ;
185 -> 186 ;
187 [label="entropy = 0.0\nsamples = 1\nvalue = [1, 0, 0, 0]\nclass = 0", fillcolor="#e58139"] ;
186 -> 187 ;
188 [label="Profit Margin <= -0.13\nentropy = 1.49\nsamples = 14\nvalue = [7, 0, 4, 3]\nclass = 0", fillcolor="#f7d9c4"] ;
186 -> 188 ;
189 [label="Operating Margin <= -0.44\nentropy = 1.38\nsamples = 12\nvalue = [7, 0, 3, 2]\nclass = 0", fillcolor="#f3c7a7"] ;
188 -> 189 ;
190 [label="After Tax ROE <= 0.17\nentropy = 1.5\nsamples = 4\nvalue = [1, 0, 2, 1]\nclass = 2", fillcolor="#bddef6"] ;
189 -> 190 ;
191 [label="entropy = 0.0\nsamples = 1\nvalue = [0, 0, 0, 1]\nclass = 3", fillcolor="#d739e5"] ;
190 -> 191 ;
192 [label="Operating Margin <= -0.51\nentropy = 0.92\nsamples = 3\nvalue = [1, 0, 2, 0]\nclass = 2", fillcolor="#9ccef2"] ;
190 -> 192 ;
193 [label="entropy = 0.0\nsamples = 1\nvalue = [1, 0, 0, 0]\nclass = 0", fillcolor="#e58139"] ;
192 -> 193 ;
194 [label="entropy = 0.0\nsamples = 2\nvalue = [0, 0, 2, 0]\nclass = 2", fillcolor="#399de5"] ;
192 -> 194 ;
195 [label="Operating Margin <= -0.37\nentropy = 1.06\nsamples = 8\nvalue = [6, 0, 1, 1]\nclass = 0", fillcolor="#eca572"] ;
189 -> 195 ;
196 [label="Cash Ratio <= 1.19\nentropy = 0.81\nsamples = 4\nvalue = [3, 0, 1, 0]\nclass = 0", fillcolor="#eeab7b"] ;
195 -> 196 ;
197 [label="entropy = 0.0\nsamples = 3\nvalue = [3, 0, 0, 0]\nclass = 0", fillcolor="#e58139"] ;
196 -> 197 ;
198 [label="entropy = 0.0\nsamples = 1\nvalue = [0, 0, 1, 0]\nclass = 2", fillcolor="#399de5"] ;
196 -> 198 ;
199 [label="Profit Margin <= -0.24\nentropy = 0.81\nsamples = 4\nvalue = [3, 0, 0, 1]\nclass = 0", fillcolor="#eeab7b"] ;
195 -> 199 ;
200 [label="Gross Margin <= -0.27\nentropy = 0.92\nsamples = 3\nvalue = [2, 0, 0, 1]\nclass = 0", fillcolor="#f2c09c"] ;
199 -> 200 ;
201 [label="PEG <= 0.2\nentropy = 1.0\nsamples = 2\nvalue = [1, 0, 0, 1]\nclass = 0", fillcolor="#ffffff"] ;
200 -> 201 ;
202 [label="entropy = 0.0\nsamples = 1\nvalue = [0, 0, 0, 1]\nclass = 3", fillcolor="#d739e5"] ;
201 -> 202 ;
203 [label="entropy = 0.0\nsamples = 1\nvalue = [1, 0, 0, 0]\nclass = 0", fillcolor="#e58139"] ;
201 -> 203 ;
204 [label="entropy = 0.0\nsamples = 1\nvalue = [1, 0, 0, 0]\nclass = 0", fillcolor="#e58139"] ;
200 -> 204 ;
205 [label="entropy = 0.0\nsamples = 1\nvalue = [1, 0, 0, 0]\nclass = 0", fillcolor="#e58139"] ;
199 -> 205 ;
206 [label="PEG <= 0.37\nentropy = 1.0\nsamples = 2\nvalue = [0, 0, 1, 1]\nclass = 2", fillcolor="#ffffff"] ;
188 -> 206 ;
207 [label="entropy = 0.0\nsamples = 1\nvalue = [0, 0, 0, 1]\nclass = 3", fillcolor="#d739e5"] ;
206 -> 207 ;
208 [label="entropy = 0.0\nsamples = 1\nvalue = [0, 0, 1, 0]\nclass = 2", fillcolor="#399de5"] ;
206 -> 208 ;
209 [label="entropy = 0.0\nsamples = 1\nvalue = [0, 0, 0, 1]\nclass = 3", fillcolor="#d739e5"] ;
185 -> 209 ;
210 [label="entropy = 0.0\nsamples = 1\nvalue = [1, 0, 0, 0]\nclass = 0", fillcolor="#e58139"] ;
178 -> 210 ;
211 [label="After Tax ROE <= -0.0\nentropy = 1.74\nsamples = 23\nvalue = [3, 2, 8, 10]\nclass = 3", fillcolor="#fae5fc"] ;
173 -> 211 ;
212 [label="Profit Margin <= -0.04\nentropy = 1.97\nsamples = 10\nvalue = [2, 2, 3, 3]\nclass = 2", fillcolor="#ffffff"] ;
211 -> 212 ;
213 [label="Gross Margin <= -0.45\nentropy = 1.91\nsamples = 8\nvalue = [2, 2, 3, 1]\nclass = 2", fillcolor="#deeffb"] ;
212 -> 213 ;
214 [label="PE <= -0.54\nentropy = 0.92\nsamples = 3\nvalue = [0, 0, 2, 1]\nclass = 2", fillcolor="#9ccef2"] ;
213 -> 214 ;
215 [label="entropy = 0.0\nsamples = 1\nvalue = [0, 0, 0, 1]\nclass = 3", fillcolor="#d739e5"] ;
214 -> 215 ;
216 [label="entropy = 0.0\nsamples = 2\nvalue = [0, 0, 2, 0]\nclass = 2", fillcolor="#399de5"] ;
214 -> 216 ;
217 [label="PE <= -0.79\nentropy = 1.52\nsamples = 5\nvalue = [2, 2, 1, 0]\nclass = 0", fillcolor="#ffffff"] ;
213 -> 217 ;
218 [label="PEG <= 1.63\nentropy = 0.92\nsamples = 3\nvalue = [1, 2, 0, 0]\nclass = 1", fillcolor="#a3f29c"] ;
217 -> 218 ;
219 [label="entropy = 0.0\nsamples = 2\nvalue = [0, 2, 0, 0]\nclass = 1", fillcolor="#47e539"] ;
218 -> 219 ;
220 [label="entropy = 0.0\nsamples = 1\nvalue = [1, 0, 0, 0]\nclass = 0", fillcolor="#e58139"] ;
218 -> 220 ;
221 [label="Cash Ratio <= -0.79\nentropy = 1.0\nsamples = 2\nvalue = [1, 0, 1, 0]\nclass = 0", fillcolor="#ffffff"] ;
217 -> 221 ;
222 [label="entropy = 0.0\nsamples = 1\nvalue = [1, 0, 0, 0]\nclass = 0", fillcolor="#e58139"] ;
221 -> 222 ;
223 [label="entropy = 0.0\nsamples = 1\nvalue = [0, 0, 1, 0]\nclass = 2", fillcolor="#399de5"] ;
221 -> 223 ;
224 [label="entropy = 0.0\nsamples = 2\nvalue = [0, 0, 0, 2]\nclass = 3", fillcolor="#d739e5"] ;
212 -> 224 ;
225 [label="PE <= -0.5\nentropy = 1.3\nsamples = 13\nvalue = [1, 0, 5, 7]\nclass = 3", fillcolor="#f5cef8"] ;
211 -> 225 ;
226 [label="entropy = 0.0\nsamples = 4\nvalue = [0, 0, 0, 4]\nclass = 3", fillcolor="#d739e5"] ;
225 -> 226 ;
227 [label="Operating Margin <= -0.24\nentropy = 1.35\nsamples = 9\nvalue = [1, 0, 5, 3]\nclass = 2", fillcolor="#bddef6"] ;
225 -> 227 ;
228 [label="PEG <= 4.53\nentropy = 0.92\nsamples = 3\nvalue = [0, 0, 1, 2]\nclass = 3", fillcolor="#eb9cf2"] ;
227 -> 228 ;
229 [label="entropy = 0.0\nsamples = 2\nvalue = [0, 0, 0, 2]\nclass = 3", fillcolor="#d739e5"] ;
228 -> 229 ;
230 [label="entropy = 0.0\nsamples = 1\nvalue = [0, 0, 1, 0]\nclass = 2", fillcolor="#399de5"] ;
228 -> 230 ;
231 [label="After Tax ROE <= 1.49\nentropy = 1.25\nsamples = 6\nvalue = [1, 0, 4, 1]\nclass = 2", fillcolor="#88c4ef"] ;
227 -> 231 ;
232 [label="Cash Ratio <= -0.4\nentropy = 0.92\nsamples = 3\nvalue = [1, 0, 2, 0]\nclass = 2", fillcolor="#9ccef2"] ;
231 -> 232 ;
233 [label="entropy = 0.0\nsamples = 2\nvalue = [0, 0, 2, 0]\nclass = 2", fillcolor="#399de5"] ;
232 -> 233 ;
234 [label="entropy = 0.0\nsamples = 1\nvalue = [1, 0, 0, 0]\nclass = 0", fillcolor="#e58139"] ;
232 -> 234 ;
235 [label="PE <= -0.15\nentropy = 0.92\nsamples = 3\nvalue = [0, 0, 2, 1]\nclass = 2", fillcolor="#9ccef2"] ;
231 -> 235 ;
236 [label="entropy = 0.0\nsamples = 2\nvalue = [0, 0, 2, 0]\nclass = 2", fillcolor="#399de5"] ;
235 -> 236 ;
237 [label="entropy = 0.0\nsamples = 1\nvalue = [0, 0, 0, 1]\nclass = 3", fillcolor="#d739e5"] ;
235 -> 237 ;
238 [label="PE <= -1.47\nentropy = 1.37\nsamples = 5\nvalue = [1, 0, 3, 1]\nclass = 2", fillcolor="#9ccef2"] ;
134 -> 238 ;
239 [label="entropy = 0.0\nsamples = 1\nvalue = [0, 0, 0, 1]\nclass = 3", fillcolor="#d739e5"] ;
238 -> 239 ;
240 [label="Profit Margin <= -0.18\nentropy = 0.81\nsamples = 4\nvalue = [1, 0, 3, 0]\nclass = 2", fillcolor="#7bbeee"] ;
238 -> 240 ;
241 [label="entropy = 0.0\nsamples = 1\nvalue = [1, 0, 0, 0]\nclass = 0", fillcolor="#e58139"] ;
240 -> 241 ;
242 [label="entropy = 0.0\nsamples = 3\nvalue = [0, 0, 3, 0]\nclass = 2", fillcolor="#399de5"] ;
240 -> 242 ;
243 [label="Cash Ratio <= 0.15\nentropy = 1.0\nsamples = 2\nvalue = [1, 1, 0, 0]\nclass = 0", fillcolor="#ffffff"] ;
65 -> 243 ;
244 [label="entropy = 0.0\nsamples = 1\nvalue = [0, 1, 0, 0]\nclass = 1", fillcolor="#47e539"] ;
243 -> 244 ;
245 [label="entropy = 0.0\nsamples = 1\nvalue = [1, 0, 0, 0]\nclass = 0", fillcolor="#e58139"] ;
243 -> 245 ;
246 [label="PE <= 1.02\nentropy = 1.98\nsamples = 162\nvalue = [35, 34, 47, 46]\nclass = 2", fillcolor="#fdfeff"] ;
28 -> 246 ;
247 [label="Cash Ratio <= -0.21\nentropy = 1.99\nsamples = 100\nvalue = [22, 26, 30, 22]\nclass = 2", fillcolor="#f4fafe"] ;
246 -> 247 ;
248 [label="PE <= 0.35\nentropy = 1.98\nsamples = 63\nvalue = [18, 14, 18, 13]\nclass = 0", fillcolor="#ffffff"] ;
247 -> 248 ;
249 [label="Gross Margin <= 0.83\nentropy = 1.95\nsamples = 31\nvalue = [6, 8, 6, 11]\nclass = 3", fillcolor="#fae5fc"] ;
248 -> 249 ;
250 [label="Cash Ratio <= -0.81\nentropy = 1.92\nsamples = 29\nvalue = [5, 8, 5, 11]\nclass = 3", fillcolor="#f9e3fb"] ;
249 -> 250 ;
251 [label="Profit Margin <= -0.55\nentropy = 1.38\nsamples = 7\nvalue = [0, 2, 1, 4]\nclass = 3", fillcolor="#efb0f5"] ;
250 -> 251 ;
252 [label="After Tax ROE <= 0.1\nentropy = 1.0\nsamples = 2\nvalue = [0, 1, 1, 0]\nclass = 1", fillcolor="#ffffff"] ;
251 -> 252 ;
253 [label="entropy = 0.0\nsamples = 1\nvalue = [0, 1, 0, 0]\nclass = 1", fillcolor="#47e539"] ;
252 -> 253 ;
254 [label="entropy = 0.0\nsamples = 1\nvalue = [0, 0, 1, 0]\nclass = 2", fillcolor="#399de5"] ;
252 -> 254 ;
255 [label="Operating Margin <= -0.52\nentropy = 0.72\nsamples = 5\nvalue = [0, 1, 0, 4]\nclass = 3", fillcolor="#e16aec"] ;
251 -> 255 ;
256 [label="PE <= 0.13\nentropy = 1.0\nsamples = 2\nvalue = [0, 1, 0, 1]\nclass = 1", fillcolor="#ffffff"] ;
255 -> 256 ;
257 [label="entropy = 0.0\nsamples = 1\nvalue = [0, 1, 0, 0]\nclass = 1", fillcolor="#47e539"] ;
256 -> 257 ;
258 [label="entropy = 0.0\nsamples = 1\nvalue = [0, 0, 0, 1]\nclass = 3", fillcolor="#d739e5"] ;
256 -> 258 ;
259 [label="entropy = 0.0\nsamples = 3\nvalue = [0, 0, 0, 3]\nclass = 3", fillcolor="#d739e5"] ;
255 -> 259 ;
260 [label="After Tax ROE <= 0.85\nentropy = 1.97\nsamples = 22\nvalue = [5, 6, 4, 7]\nclass = 3", fillcolor="#fcf3fd"] ;
250 -> 260 ;
261 [label="PE <= 0.28\nentropy = 1.9\nsamples = 17\nvalue = [3, 4, 3, 7]\nclass = 3", fillcolor="#f6d1f9"] ;
260 -> 261 ;
262 [label="Cash Ratio <= -0.45\nentropy = 1.69\nsamples = 14\nvalue = [2, 4, 1, 7]\nclass = 3", fillcolor="#f3c4f7"] ;
261 -> 262 ;
263 [label="After Tax ROE <= -0.25\nentropy = 1.53\nsamples = 9\nvalue = [2, 3, 0, 4]\nclass = 3", fillcolor="#f8defb"] ;
262 -> 263 ;
264 [label="entropy = 0.0\nsamples = 2\nvalue = [0, 0, 0, 2]\nclass = 3", fillcolor="#d739e5"] ;
263 -> 264 ;
265 [label="Gross Margin <= -1.08\nentropy = 1.56\nsamples = 7\nvalue = [2, 3, 0, 2]\nclass = 1", fillcolor="#dafad7"] ;
263 -> 265 ;
266 [label="entropy = 0.0\nsamples = 1\nvalue = [0, 1, 0, 0]\nclass = 1", fillcolor="#47e539"] ;
265 -> 266 ;
267 [label="Cash Ratio <= -0.62\nentropy = 1.58\nsamples = 6\nvalue = [2, 2, 0, 2]\nclass = 0", fillcolor="#ffffff"] ;
265 -> 267 ;
268 [label="Gross Margin <= -1.01\nentropy = 1.52\nsamples = 5\nvalue = [1, 2, 0, 2]\nclass = 1", fillcolor="#ffffff"] ;
267 -> 268 ;
269 [label="entropy = 0.0\nsamples = 1\nvalue = [0, 0, 0, 1]\nclass = 3", fillcolor="#d739e5"] ;
268 -> 269 ;
270 [label="Gross Margin <= -0.53\nentropy = 1.5\nsamples = 4\nvalue = [1, 2, 0, 1]\nclass = 1", fillcolor="#c2f6bd"] ;
268 -> 270 ;
271 [label="Cash Ratio <= -0.7\nentropy = 1.0\nsamples = 2\nvalue = [0, 1, 0, 1]\nclass = 1", fillcolor="#ffffff"] ;
270 -> 271 ;
272 [label="entropy = 0.0\nsamples = 1\nvalue = [0, 0, 0, 1]\nclass = 3", fillcolor="#d739e5"] ;
271 -> 272 ;
273 [label="entropy = 0.0\nsamples = 1\nvalue = [0, 1, 0, 0]\nclass = 1", fillcolor="#47e539"] ;
271 -> 273 ;
274 [label="PE <= 0.11\nentropy = 1.0\nsamples = 2\nvalue = [1, 1, 0, 0]\nclass = 0", fillcolor="#ffffff"] ;
270 -> 274 ;
275 [label="entropy = 0.0\nsamples = 1\nvalue = [1, 0, 0, 0]\nclass = 0", fillcolor="#e58139"] ;
274 -> 275 ;
276 [label="entropy = 0.0\nsamples = 1\nvalue = [0, 1, 0, 0]\nclass = 1", fillcolor="#47e539"] ;
274 -> 276 ;
277 [label="entropy = 0.0\nsamples = 1\nvalue = [1, 0, 0, 0]\nclass = 0", fillcolor="#e58139"] ;
267 -> 277 ;
278 [label="Cash Ratio <= -0.32\nentropy = 1.37\nsamples = 5\nvalue = [0, 1, 1, 3]\nclass = 3", fillcolor="#eb9cf2"] ;
262 -> 278 ;
279 [label="Cash Ratio <= -0.35\nentropy = 0.81\nsamples = 4\nvalue = [0, 0, 1, 3]\nclass = 3", fillcolor="#e47bee"] ;
278 -> 279 ;
280 [label="Operating Margin <= -0.43\nentropy = 1.0\nsamples = 2\nvalue = [0, 0, 1, 1]\nclass = 2", fillcolor="#ffffff"] ;
279 -> 280 ;
281 [label="entropy = 0.0\nsamples = 1\nvalue = [0, 0, 0, 1]\nclass = 3", fillcolor="#d739e5"] ;
280 -> 281 ;
282 [label="entropy = 0.0\nsamples = 1\nvalue = [0, 0, 1, 0]\nclass = 2", fillcolor="#399de5"] ;
280 -> 282 ;
283 [label="entropy = 0.0\nsamples = 2\nvalue = [0, 0, 0, 2]\nclass = 3", fillcolor="#d739e5"] ;
279 -> 283 ;
284 [label="entropy = 0.0\nsamples = 1\nvalue = [0, 1, 0, 0]\nclass = 1", fillcolor="#47e539"] ;
278 -> 284 ;
285 [label="Cash Ratio <= -0.46\nentropy = 0.92\nsamples = 3\nvalue = [1, 0, 2, 0]\nclass = 2", fillcolor="#9ccef2"] ;
261 -> 285 ;
286 [label="entropy = 0.0\nsamples = 1\nvalue = [1, 0, 0, 0]\nclass = 0", fillcolor="#e58139"] ;
285 -> 286 ;
287 [label="entropy = 0.0\nsamples = 2\nvalue = [0, 0, 2, 0]\nclass = 2", fillcolor="#399de5"] ;
285 -> 287 ;
288 [label="PEG <= 9.9\nentropy = 1.52\nsamples = 5\nvalue = [2, 2, 1, 0]\nclass = 0", fillcolor="#ffffff"] ;
260 -> 288 ;
289 [label="PE <= 0.3\nentropy = 1.0\nsamples = 4\nvalue = [2, 2, 0, 0]\nclass = 0", fillcolor="#ffffff"] ;
288 -> 289 ;
290 [label="entropy = 0.0\nsamples = 2\nvalue = [0, 2, 0, 0]\nclass = 1", fillcolor="#47e539"] ;
289 -> 290 ;
291 [label="entropy = 0.0\nsamples = 2\nvalue = [2, 0, 0, 0]\nclass = 0", fillcolor="#e58139"] ;
289 -> 291 ;
292 [label="entropy = 0.0\nsamples = 1\nvalue = [0, 0, 1, 0]\nclass = 2", fillcolor="#399de5"] ;
288 -> 292 ;
293 [label="PEG <= -3.67\nentropy = 1.0\nsamples = 2\nvalue = [1, 0, 1, 0]\nclass = 0", fillcolor="#ffffff"] ;
249 -> 293 ;
294 [label="entropy = 0.0\nsamples = 1\nvalue = [0, 0, 1, 0]\nclass = 2", fillcolor="#399de5"] ;
293 -> 294 ;
295 [label="entropy = 0.0\nsamples = 1\nvalue = [1, 0, 0, 0]\nclass = 0", fillcolor="#e58139"] ;
293 -> 295 ;
296 [label="Operating Margin <= -0.31\nentropy = 1.76\nsamples = 32\nvalue = [12, 6, 12, 2]\nclass = 0", fillcolor="#ffffff"] ;
248 -> 296 ;
297 [label="Cash Ratio <= -0.32\nentropy = 1.5\nsamples = 22\nvalue = [9, 4, 9, 0]\nclass = 0", fillcolor="#ffffff"] ;
296 -> 297 ;
298 [label="Operating Margin <= -0.63\nentropy = 1.51\nsamples = 21\nvalue = [8, 4, 9, 0]\nclass = 2", fillcolor="#f0f7fd"] ;
297 -> 298 ;
299 [label="Cash Ratio <= -0.83\nentropy = 0.81\nsamples = 4\nvalue = [0, 1, 3, 0]\nclass = 2", fillcolor="#7bbeee"] ;
298 -> 299 ;
300 [label="entropy = 0.0\nsamples = 1\nvalue = [0, 1, 0, 0]\nclass = 1", fillcolor="#47e539"] ;
299 -> 300 ;
301 [label="entropy = 0.0\nsamples = 3\nvalue = [0, 0, 3, 0]\nclass = 2", fillcolor="#399de5"] ;
299 -> 301 ;
302 [label="After Tax ROE <= 1.7\nentropy = 1.48\nsamples = 17\nvalue = [8, 3, 6, 0]\nclass = 0", fillcolor="#fae8db"] ;
298 -> 302 ;
303 [label="Profit Margin <= -0.5\nentropy = 1.48\nsamples = 16\nvalue = [8, 3, 5, 0]\nclass = 0", fillcolor="#f8ddc9"] ;
302 -> 303 ;
304 [label="PE <= 0.78\nentropy = 1.0\nsamples = 4\nvalue = [2, 2, 0, 0]\nclass = 0", fillcolor="#ffffff"] ;
303 -> 304 ;
305 [label="PE <= 0.7\nentropy = 0.92\nsamples = 3\nvalue = [1, 2, 0, 0]\nclass = 1", fillcolor="#a3f29c"] ;
304 -> 305 ;
306 [label="entropy = 0.0\nsamples = 2\nvalue = [0, 2, 0, 0]\nclass = 1", fillcolor="#47e539"] ;
305 -> 306 ;
307 [label="entropy = 0.0\nsamples = 1\nvalue = [1, 0, 0, 0]\nclass = 0", fillcolor="#e58139"] ;
305 -> 307 ;
308 [label="entropy = 0.0\nsamples = 1\nvalue = [1, 0, 0, 0]\nclass = 0", fillcolor="#e58139"] ;
304 -> 308 ;
309 [label="PEG <= 0.11\nentropy = 1.33\nsamples = 12\nvalue = [6, 1, 5, 0]\nclass = 0", fillcolor="#fbede3"] ;
303 -> 309 ;
310 [label="PE <= 0.93\nentropy = 1.15\nsamples = 7\nvalue = [5, 1, 1, 0]\nclass = 0", fillcolor="#eeab7b"] ;
309 -> 310 ;
311 [label="PEG <= -0.73\nentropy = 0.72\nsamples = 5\nvalue = [4, 1, 0, 0]\nclass = 0", fillcolor="#eca06a"] ;
310 -> 311 ;
312 [label="Cash Ratio <= -0.78\nentropy = 1.0\nsamples = 2\nvalue = [1, 1, 0, 0]\nclass = 0", fillcolor="#ffffff"] ;
311 -> 312 ;
313 [label="entropy = 0.0\nsamples = 1\nvalue = [1, 0, 0, 0]\nclass = 0", fillcolor="#e58139"] ;
312 -> 313 ;
314 [label="entropy = 0.0\nsamples = 1\nvalue = [0, 1, 0, 0]\nclass = 1", fillcolor="#47e539"] ;
312 -> 314 ;
315 [label="entropy = 0.0\nsamples = 3\nvalue = [3, 0, 0, 0]\nclass = 0", fillcolor="#e58139"] ;
311 -> 315 ;
316 [label="Profit Margin <= -0.22\nentropy = 1.0\nsamples = 2\nvalue = [1, 0, 1, 0]\nclass = 0", fillcolor="#ffffff"] ;
310 -> 316 ;
317 [label="entropy = 0.0\nsamples = 1\nvalue = [0, 0, 1, 0]\nclass = 2", fillcolor="#399de5"] ;
316 -> 317 ;
318 [label="entropy = 0.0\nsamples = 1\nvalue = [1, 0, 0, 0]\nclass = 0", fillcolor="#e58139"] ;
316 -> 318 ;
319 [label="Gross Margin <= -0.58\nentropy = 0.72\nsamples = 5\nvalue = [1, 0, 4, 0]\nclass = 2", fillcolor="#6ab6ec"] ;
309 -> 319 ;
320 [label="entropy = 0.0\nsamples = 1\nvalue = [1, 0, 0, 0]\nclass = 0", fillcolor="#e58139"] ;
319 -> 320 ;
321 [label="entropy = 0.0\nsamples = 4\nvalue = [0, 0, 4, 0]\nclass = 2", fillcolor="#399de5"] ;
319 -> 321 ;
322 [label="entropy = 0.0\nsamples = 1\nvalue = [0, 0, 1, 0]\nclass = 2", fillcolor="#399de5"] ;
302 -> 322 ;
323 [label="entropy = 0.0\nsamples = 1\nvalue = [1, 0, 0, 0]\nclass = 0", fillcolor="#e58139"] ;
297 -> 323 ;
324 [label="Gross Margin <= -0.24\nentropy = 1.97\nsamples = 10\nvalue = [3, 2, 3, 2]\nclass = 0", fillcolor="#ffffff"] ;
296 -> 324 ;
325 [label="Operating Margin <= -0.17\nentropy = 1.52\nsamples = 5\nvalue = [0, 2, 2, 1]\nclass = 1", fillcolor="#ffffff"] ;
324 -> 325 ;
326 [label="Cash Ratio <= -0.53\nentropy = 0.92\nsamples = 3\nvalue = [0, 2, 0, 1]\nclass = 1", fillcolor="#a3f29c"] ;
325 -> 326 ;
327 [label="entropy = 0.0\nsamples = 2\nvalue = [0, 2, 0, 0]\nclass = 1", fillcolor="#47e539"] ;
326 -> 327 ;
328 [label="entropy = 0.0\nsamples = 1\nvalue = [0, 0, 0, 1]\nclass = 3", fillcolor="#d739e5"] ;
326 -> 328 ;
329 [label="entropy = 0.0\nsamples = 2\nvalue = [0, 0, 2, 0]\nclass = 2", fillcolor="#399de5"] ;
325 -> 329 ;
330 [label="Profit Margin <= -0.43\nentropy = 1.37\nsamples = 5\nvalue = [3, 0, 1, 1]\nclass = 0", fillcolor="#f2c09c"] ;
324 -> 330 ;
331 [label="entropy = 0.0\nsamples = 1\nvalue = [0, 0, 1, 0]\nclass = 2", fillcolor="#399de5"] ;
330 -> 331 ;
332 [label="PEG <= 1.08\nentropy = 0.81\nsamples = 4\nvalue = [3, 0, 0, 1]\nclass = 0", fillcolor="#eeab7b"] ;
330 -> 332 ;
333 [label="entropy = 0.0\nsamples = 3\nvalue = [3, 0, 0, 0]\nclass = 0", fillcolor="#e58139"] ;
332 -> 333 ;
334 [label="entropy = 0.0\nsamples = 1\nvalue = [0, 0, 0, 1]\nclass = 3", fillcolor="#d739e5"] ;
332 -> 334 ;
335 [label="Profit Margin <= -0.52\nentropy = 1.9\nsamples = 37\nvalue = [4, 12, 12, 9]\nclass = 1", fillcolor="#ffffff"] ;
247 -> 335 ;
336 [label="PE <= 0.51\nentropy = 2.0\nsamples = 12\nvalue = [3, 3, 3, 3]\nclass = 0", fillcolor="#ffffff"] ;
335 -> 336 ;
337 [label="Profit Margin <= -0.64\nentropy = 1.58\nsamples = 6\nvalue = [0, 2, 2, 2]\nclass = 1", fillcolor="#ffffff"] ;
336 -> 337 ;
338 [label="Gross Margin <= -0.48\nentropy = 0.92\nsamples = 3\nvalue = [0, 1, 0, 2]\nclass = 3", fillcolor="#eb9cf2"] ;
337 -> 338 ;
339 [label="entropy = 0.0\nsamples = 2\nvalue = [0, 0, 0, 2]\nclass = 3", fillcolor="#d739e5"] ;
338 -> 339 ;
340 [label="entropy = 0.0\nsamples = 1\nvalue = [0, 1, 0, 0]\nclass = 1", fillcolor="#47e539"] ;
338 -> 340 ;
341 [label="PEG <= -0.21\nentropy = 0.92\nsamples = 3\nvalue = [0, 1, 2, 0]\nclass = 2", fillcolor="#9ccef2"] ;
337 -> 341 ;
342 [label="entropy = 0.0\nsamples = 2\nvalue = [0, 0, 2, 0]\nclass = 2", fillcolor="#399de5"] ;
341 -> 342 ;
343 [label="entropy = 0.0\nsamples = 1\nvalue = [0, 1, 0, 0]\nclass = 1", fillcolor="#47e539"] ;
341 -> 343 ;
344 [label="After Tax ROE <= -0.54\nentropy = 1.79\nsamples = 6\nvalue = [3, 1, 1, 1]\nclass = 0", fillcolor="#f5cdb0"] ;
336 -> 344 ;
345 [label="entropy = 0.0\nsamples = 1\nvalue = [0, 0, 0, 1]\nclass = 3", fillcolor="#d739e5"] ;
344 -> 345 ;
346 [label="PEG <= 7.42\nentropy = 1.37\nsamples = 5\nvalue = [3, 1, 1, 0]\nclass = 0", fillcolor="#f2c09c"] ;
344 -> 346 ;
347 [label="PEG <= 0.6\nentropy = 0.81\nsamples = 4\nvalue = [3, 1, 0, 0]\nclass = 0", fillcolor="#eeab7b"] ;
346 -> 347 ;
348 [label="entropy = 0.0\nsamples = 2\nvalue = [2, 0, 0, 0]\nclass = 0", fillcolor="#e58139"] ;
347 -> 348 ;
349 [label="PE <= 0.75\nentropy = 1.0\nsamples = 2\nvalue = [1, 1, 0, 0]\nclass = 0", fillcolor="#ffffff"] ;
347 -> 349 ;
350 [label="entropy = 0.0\nsamples = 1\nvalue = [1, 0, 0, 0]\nclass = 0", fillcolor="#e58139"] ;
349 -> 350 ;
351 [label="entropy = 0.0\nsamples = 1\nvalue = [0, 1, 0, 0]\nclass = 1", fillcolor="#47e539"] ;
349 -> 351 ;
352 [label="entropy = 0.0\nsamples = 1\nvalue = [0, 0, 1, 0]\nclass = 2", fillcolor="#399de5"] ;
346 -> 352 ;
353 [label="PE <= 0.16\nentropy = 1.74\nsamples = 25\nvalue = [1, 9, 9, 6]\nclass = 1", fillcolor="#ffffff"] ;
335 -> 353 ;
354 [label="PE <= 0.13\nentropy = 2.0\nsamples = 4\nvalue = [1, 1, 1, 1]\nclass = 0", fillcolor="#ffffff"] ;
353 -> 354 ;
355 [label="Profit Margin <= -0.01\nentropy = 1.0\nsamples = 2\nvalue = [1, 1, 0, 0]\nclass = 0", fillcolor="#ffffff"] ;
354 -> 355 ;
356 [label="entropy = 0.0\nsamples = 1\nvalue = [1, 0, 0, 0]\nclass = 0", fillcolor="#e58139"] ;
355 -> 356 ;
357 [label="entropy = 0.0\nsamples = 1\nvalue = [0, 1, 0, 0]\nclass = 1", fillcolor="#47e539"] ;
355 -> 357 ;
358 [label="After Tax ROE <= -0.15\nentropy = 1.0\nsamples = 2\nvalue = [0, 0, 1, 1]\nclass = 2", fillcolor="#ffffff"] ;
354 -> 358 ;
359 [label="entropy = 0.0\nsamples = 1\nvalue = [0, 0, 0, 1]\nclass = 3", fillcolor="#d739e5"] ;
358 -> 359 ;
360 [label="entropy = 0.0\nsamples = 1\nvalue = [0, 0, 1, 0]\nclass = 2", fillcolor="#399de5"] ;
358 -> 360 ;
361 [label="Operating Margin <= -0.5\nentropy = 1.55\nsamples = 21\nvalue = [0, 8, 8, 5]\nclass = 1", fillcolor="#ffffff"] ;
353 -> 361 ;
362 [label="PEG <= -2.66\nentropy = 0.72\nsamples = 5\nvalue = [0, 0, 4, 1]\nclass = 2", fillcolor="#6ab6ec"] ;
361 -> 362 ;
363 [label="Gross Margin <= -0.01\nentropy = 1.0\nsamples = 2\nvalue = [0, 0, 1, 1]\nclass = 2", fillcolor="#ffffff"] ;
362 -> 363 ;
364 [label="entropy = 0.0\nsamples = 1\nvalue = [0, 0, 1, 0]\nclass = 2", fillcolor="#399de5"] ;
363 -> 364 ;
365 [label="entropy = 0.0\nsamples = 1\nvalue = [0, 0, 0, 1]\nclass = 3", fillcolor="#d739e5"] ;
363 -> 365 ;
366 [label="entropy = 0.0\nsamples = 3\nvalue = [0, 0, 3, 0]\nclass = 2", fillcolor="#399de5"] ;
362 -> 366 ;
367 [label="Cash Ratio <= 0.74\nentropy = 1.5\nsamples = 16\nvalue = [0, 8, 4, 4]\nclass = 1", fillcolor="#c2f6bd"] ;
361 -> 367 ;
368 [label="Profit Margin <= 0.17\nentropy = 1.57\nsamples = 11\nvalue = [0, 4, 3, 4]\nclass = 1", fillcolor="#ffffff"] ;
367 -> 368 ;
369 [label="Profit Margin <= -0.37\nentropy = 1.57\nsamples = 10\nvalue = [0, 3, 3, 4]\nclass = 3", fillcolor="#f9e3fb"] ;
368 -> 369 ;
370 [label="entropy = 0.0\nsamples = 1\nvalue = [0, 0, 0, 1]\nclass = 3", fillcolor="#d739e5"] ;
369 -> 370 ;
371 [label="Gross Margin <= 0.63\nentropy = 1.58\nsamples = 9\nvalue = [0, 3, 3, 3]\nclass = 1", fillcolor="#ffffff"] ;
369 -> 371 ;
372 [label="PEG <= 1.45\nentropy = 1.56\nsamples = 8\nvalue = [0, 3, 2, 3]\nclass = 1", fillcolor="#ffffff"] ;
371 -> 372 ;
373 [label="After Tax ROE <= 1.65\nentropy = 1.52\nsamples = 5\nvalue = [0, 2, 2, 1]\nclass = 1", fillcolor="#ffffff"] ;
372 -> 373 ;
374 [label="Cash Ratio <= 0.36\nentropy = 0.92\nsamples = 3\nvalue = [0, 2, 0, 1]\nclass = 1", fillcolor="#a3f29c"] ;
373 -> 374 ;
375 [label="entropy = 0.0\nsamples = 2\nvalue = [0, 2, 0, 0]\nclass = 1", fillcolor="#47e539"] ;
374 -> 375 ;
376 [label="entropy = 0.0\nsamples = 1\nvalue = [0, 0, 0, 1]\nclass = 3", fillcolor="#d739e5"] ;
374 -> 376 ;
377 [label="entropy = 0.0\nsamples = 2\nvalue = [0, 0, 2, 0]\nclass = 2", fillcolor="#399de5"] ;
373 -> 377 ;
378 [label="Profit Margin <= -0.29\nentropy = 0.92\nsamples = 3\nvalue = [0, 1, 0, 2]\nclass = 3", fillcolor="#eb9cf2"] ;
372 -> 378 ;
379 [label="entropy = 0.0\nsamples = 1\nvalue = [0, 1, 0, 0]\nclass = 1", fillcolor="#47e539"] ;
378 -> 379 ;
380 [label="entropy = 0.0\nsamples = 2\nvalue = [0, 0, 0, 2]\nclass = 3", fillcolor="#d739e5"] ;
378 -> 380 ;
381 [label="entropy = 0.0\nsamples = 1\nvalue = [0, 0, 1, 0]\nclass = 2", fillcolor="#399de5"] ;
371 -> 381 ;
382 [label="entropy = 0.0\nsamples = 1\nvalue = [0, 1, 0, 0]\nclass = 1", fillcolor="#47e539"] ;
368 -> 382 ;
383 [label="PE <= 0.45\nentropy = 0.72\nsamples = 5\nvalue = [0, 4, 1, 0]\nclass = 1", fillcolor="#75ec6a"] ;
367 -> 383 ;
384 [label="PE <= 0.25\nentropy = 1.0\nsamples = 2\nvalue = [0, 1, 1, 0]\nclass = 1", fillcolor="#ffffff"] ;
383 -> 384 ;
385 [label="entropy = 0.0\nsamples = 1\nvalue = [0, 1, 0, 0]\nclass = 1", fillcolor="#47e539"] ;
384 -> 385 ;
386 [label="entropy = 0.0\nsamples = 1\nvalue = [0, 0, 1, 0]\nclass = 2", fillcolor="#399de5"] ;
384 -> 386 ;
387 [label="entropy = 0.0\nsamples = 3\nvalue = [0, 3, 0, 0]\nclass = 1", fillcolor="#47e539"] ;
383 -> 387 ;
388 [label="PE <= 1.59\nentropy = 1.9\nsamples = 62\nvalue = [13, 8, 17, 24]\nclass = 3", fillcolor="#f9e0fb"] ;
246 -> 388 ;
389 [label="PEG <= -4.83\nentropy = 1.68\nsamples = 20\nvalue = [4, 5, 1, 10]\nclass = 3", fillcolor="#f2bdf6"] ;
388 -> 389 ;
390 [label="entropy = 0.0\nsamples = 1\nvalue = [0, 0, 1, 0]\nclass = 2", fillcolor="#399de5"] ;
389 -> 390 ;
391 [label="PE <= 1.43\nentropy = 1.47\nsamples = 19\nvalue = [4, 5, 0, 10]\nclass = 3", fillcolor="#f1b8f6"] ;
389 -> 391 ;
392 [label="PEG <= -0.18\nentropy = 1.51\nsamples = 15\nvalue = [3, 5, 0, 7]\nclass = 3", fillcolor="#f7d7fa"] ;
391 -> 392 ;
393 [label="After Tax ROE <= 0.81\nentropy = 1.56\nsamples = 8\nvalue = [3, 3, 0, 2]\nclass = 0", fillcolor="#ffffff"] ;
392 -> 393 ;
394 [label="PE <= 1.34\nentropy = 1.0\nsamples = 6\nvalue = [3, 3, 0, 0]\nclass = 0", fillcolor="#ffffff"] ;
393 -> 394 ;
395 [label="PE <= 1.18\nentropy = 0.81\nsamples = 4\nvalue = [1, 3, 0, 0]\nclass = 1", fillcolor="#84ee7b"] ;
394 -> 395 ;
396 [label="Cash Ratio <= -0.58\nentropy = 1.0\nsamples = 2\nvalue = [1, 1, 0, 0]\nclass = 0", fillcolor="#ffffff"] ;
395 -> 396 ;
397 [label="entropy = 0.0\nsamples = 1\nvalue = [1, 0, 0, 0]\nclass = 0", fillcolor="#e58139"] ;
396 -> 397 ;
398 [label="entropy = 0.0\nsamples = 1\nvalue = [0, 1, 0, 0]\nclass = 1", fillcolor="#47e539"] ;
396 -> 398 ;
399 [label="entropy = 0.0\nsamples = 2\nvalue = [0, 2, 0, 0]\nclass = 1", fillcolor="#47e539"] ;
395 -> 399 ;
400 [label="entropy = 0.0\nsamples = 2\nvalue = [2, 0, 0, 0]\nclass = 0", fillcolor="#e58139"] ;
394 -> 400 ;
401 [label="entropy = 0.0\nsamples = 2\nvalue = [0, 0, 0, 2]\nclass = 3", fillcolor="#d739e5"] ;
393 -> 401 ;
402 [label="Profit Margin <= -0.64\nentropy = 0.86\nsamples = 7\nvalue = [0, 2, 0, 5]\nclass = 3", fillcolor="#e788ef"] ;
392 -> 402 ;
403 [label="entropy = 0.0\nsamples = 3\nvalue = [0, 0, 0, 3]\nclass = 3", fillcolor="#d739e5"] ;
402 -> 403 ;
404 [label="Cash Ratio <= 0.26\nentropy = 1.0\nsamples = 4\nvalue = [0, 2, 0, 2]\nclass = 1", fillcolor="#ffffff"] ;
402 -> 404 ;
405 [label="entropy = 0.0\nsamples = 2\nvalue = [0, 2, 0, 0]\nclass = 1", fillcolor="#47e539"] ;
404 -> 405 ;
406 [label="entropy = 0.0\nsamples = 2\nvalue = [0, 0, 0, 2]\nclass = 3", fillcolor="#d739e5"] ;
404 -> 406 ;
407 [label="After Tax ROE <= -0.28\nentropy = 0.81\nsamples = 4\nvalue = [1, 0, 0, 3]\nclass = 3", fillcolor="#e47bee"] ;
391 -> 407 ;
408 [label="entropy = 0.0\nsamples = 3\nvalue = [0, 0, 0, 3]\nclass = 3", fillcolor="#d739e5"] ;
407 -> 408 ;
409 [label="entropy = 0.0\nsamples = 1\nvalue = [1, 0, 0, 0]\nclass = 0", fillcolor="#e58139"] ;
407 -> 409 ;
410 [label="After Tax ROE <= -0.41\nentropy = 1.81\nsamples = 42\nvalue = [9, 3, 16, 14]\nclass = 2", fillcolor="#f1f8fd"] ;
388 -> 410 ;
411 [label="Gross Margin <= -0.38\nentropy = 1.71\nsamples = 32\nvalue = [8, 1, 10, 13]\nclass = 3", fillcolor="#fae4fb"] ;
410 -> 411 ;
412 [label="PE <= 2.04\nentropy = 1.85\nsamples = 10\nvalue = [2, 1, 3, 4]\nclass = 3", fillcolor="#f9e3fb"] ;
411 -> 412 ;
413 [label="PE <= 1.63\nentropy = 0.81\nsamples = 4\nvalue = [1, 0, 3, 0]\nclass = 2", fillcolor="#7bbeee"] ;
412 -> 413 ;
414 [label="entropy = 0.0\nsamples = 1\nvalue = [1, 0, 0, 0]\nclass = 0", fillcolor="#e58139"] ;
413 -> 414 ;
415 [label="entropy = 0.0\nsamples = 3\nvalue = [0, 0, 3, 0]\nclass = 2", fillcolor="#399de5"] ;
413 -> 415 ;
416 [label="PEG <= -0.96\nentropy = 1.25\nsamples = 6\nvalue = [1, 1, 0, 4]\nclass = 3", fillcolor="#e788ef"] ;
412 -> 416 ;
417 [label="entropy = 0.0\nsamples = 1\nvalue = [0, 1, 0, 0]\nclass = 1", fillcolor="#47e539"] ;
416 -> 417 ;
418 [label="PEG <= -0.52\nentropy = 0.72\nsamples = 5\nvalue = [1, 0, 0, 4]\nclass = 3", fillcolor="#e16aec"] ;
416 -> 418 ;
419 [label="entropy = 0.0\nsamples = 4\nvalue = [0, 0, 0, 4]\nclass = 3", fillcolor="#d739e5"] ;
418 -> 419 ;
420 [label="entropy = 0.0\nsamples = 1\nvalue = [1, 0, 0, 0]\nclass = 0", fillcolor="#e58139"] ;
418 -> 420 ;
421 [label="Gross Margin <= 1.78\nentropy = 1.56\nsamples = 22\nvalue = [6, 0, 7, 9]\nclass = 3", fillcolor="#fae5fc"] ;
411 -> 421 ;
422 [label="Operating Margin <= -0.38\nentropy = 1.55\nsamples = 21\nvalue = [5, 0, 7, 9]\nclass = 3", fillcolor="#f9e3fb"] ;
421 -> 422 ;
423 [label="PEG <= 0.25\nentropy = 1.58\nsamples = 16\nvalue = [5, 0, 6, 5]\nclass = 2", fillcolor="#edf6fd"] ;
422 -> 423 ;
424 [label="PEG <= -1.61\nentropy = 1.57\nsamples = 15\nvalue = [4, 0, 6, 5]\nclass = 2", fillcolor="#ebf5fc"] ;
423 -> 424 ;
425 [label="entropy = 0.0\nsamples = 1\nvalue = [1, 0, 0, 0]\nclass = 0", fillcolor="#e58139"] ;
424 -> 425 ;
426 [label="Gross Margin <= -0.01\nentropy = 1.53\nsamples = 14\nvalue = [3, 0, 6, 5]\nclass = 2", fillcolor="#e9f4fc"] ;
424 -> 426 ;
427 [label="entropy = 0.0\nsamples = 3\nvalue = [0, 0, 3, 0]\nclass = 2", fillcolor="#399de5"] ;
426 -> 427 ;
428 [label="After Tax ROE <= -0.46\nentropy = 1.54\nsamples = 11\nvalue = [3, 0, 3, 5]\nclass = 3", fillcolor="#f5cef8"] ;
426 -> 428 ;
429 [label="PEG <= -0.39\nentropy = 1.49\nsamples = 10\nvalue = [2, 0, 3, 5]\nclass = 3", fillcolor="#f4c6f8"] ;
428 -> 429 ;
430 [label="Operating Margin <= -0.64\nentropy = 1.35\nsamples = 9\nvalue = [1, 0, 3, 5]\nclass = 3", fillcolor="#f2bdf6"] ;
429 -> 430 ;
431 [label="Gross Margin <= 1.23\nentropy = 1.25\nsamples = 6\nvalue = [1, 0, 1, 4]\nclass = 3", fillcolor="#e788ef"] ;
430 -> 431 ;
432 [label="Profit Margin <= -0.72\nentropy = 0.72\nsamples = 5\nvalue = [0, 0, 1, 4]\nclass = 3", fillcolor="#e16aec"] ;
431 -> 432 ;
433 [label="PEG <= -0.55\nentropy = 0.92\nsamples = 3\nvalue = [0, 0, 1, 2]\nclass = 3", fillcolor="#eb9cf2"] ;
432 -> 433 ;
434 [label="entropy = 0.0\nsamples = 2\nvalue = [0, 0, 0, 2]\nclass = 3", fillcolor="#d739e5"] ;
433 -> 434 ;
435 [label="entropy = 0.0\nsamples = 1\nvalue = [0, 0, 1, 0]\nclass = 2", fillcolor="#399de5"] ;
433 -> 435 ;
436 [label="entropy = 0.0\nsamples = 2\nvalue = [0, 0, 0, 2]\nclass = 3", fillcolor="#d739e5"] ;
432 -> 436 ;
437 [label="entropy = 0.0\nsamples = 1\nvalue = [1, 0, 0, 0]\nclass = 0", fillcolor="#e58139"] ;
431 -> 437 ;
438 [label="Operating Margin <= -0.53\nentropy = 0.92\nsamples = 3\nvalue = [0, 0, 2, 1]\nclass = 2", fillcolor="#9ccef2"] ;
430 -> 438 ;
439 [label="entropy = 0.0\nsamples = 2\nvalue = [0, 0, 2, 0]\nclass = 2", fillcolor="#399de5"] ;
438 -> 439 ;
440 [label="entropy = 0.0\nsamples = 1\nvalue = [0, 0, 0, 1]\nclass = 3", fillcolor="#d739e5"] ;
438 -> 440 ;
441 [label="entropy = 0.0\nsamples = 1\nvalue = [1, 0, 0, 0]\nclass = 0", fillcolor="#e58139"] ;
429 -> 441 ;
442 [label="entropy = 0.0\nsamples = 1\nvalue = [1, 0, 0, 0]\nclass = 0", fillcolor="#e58139"] ;
428 -> 442 ;
443 [label="entropy = 0.0\nsamples = 1\nvalue = [1, 0, 0, 0]\nclass = 0", fillcolor="#e58139"] ;
423 -> 443 ;
444 [label="Operating Margin <= -0.19\nentropy = 0.72\nsamples = 5\nvalue = [0, 0, 1, 4]\nclass = 3", fillcolor="#e16aec"] ;
422 -> 444 ;
445 [label="entropy = 0.0\nsamples = 4\nvalue = [0, 0, 0, 4]\nclass = 3", fillcolor="#d739e5"] ;
444 -> 445 ;
446 [label="entropy = 0.0\nsamples = 1\nvalue = [0, 0, 1, 0]\nclass = 2", fillcolor="#399de5"] ;
444 -> 446 ;
447 [label="entropy = 0.0\nsamples = 1\nvalue = [1, 0, 0, 0]\nclass = 0", fillcolor="#e58139"] ;
421 -> 447 ;
448 [label="Gross Margin <= 0.07\nentropy = 1.57\nsamples = 10\nvalue = [1, 2, 6, 1]\nclass = 2", fillcolor="#9ccef2"] ;
410 -> 448 ;
449 [label="Profit Margin <= -0.23\nentropy = 1.37\nsamples = 5\nvalue = [1, 0, 3, 1]\nclass = 2", fillcolor="#9ccef2"] ;
448 -> 449 ;
450 [label="Operating Margin <= -0.77\nentropy = 0.81\nsamples = 4\nvalue = [1, 0, 3, 0]\nclass = 2", fillcolor="#7bbeee"] ;
449 -> 450 ;
451 [label="entropy = 0.0\nsamples = 2\nvalue = [0, 0, 2, 0]\nclass = 2", fillcolor="#399de5"] ;
450 -> 451 ;
452 [label="PE <= 2.25\nentropy = 1.0\nsamples = 2\nvalue = [1, 0, 1, 0]\nclass = 0", fillcolor="#ffffff"] ;
450 -> 452 ;
453 [label="entropy = 0.0\nsamples = 1\nvalue = [0, 0, 1, 0]\nclass = 2", fillcolor="#399de5"] ;
452 -> 453 ;
454 [label="entropy = 0.0\nsamples = 1\nvalue = [1, 0, 0, 0]\nclass = 0", fillcolor="#e58139"] ;
452 -> 454 ;
455 [label="entropy = 0.0\nsamples = 1\nvalue = [0, 0, 0, 1]\nclass = 3", fillcolor="#d739e5"] ;
449 -> 455 ;
456 [label="After Tax ROE <= -0.21\nentropy = 0.97\nsamples = 5\nvalue = [0, 2, 3, 0]\nclass = 2", fillcolor="#bddef6"] ;
448 -> 456 ;
457 [label="Profit Margin <= 0.15\nentropy = 0.81\nsamples = 4\nvalue = [0, 1, 3, 0]\nclass = 2", fillcolor="#7bbeee"] ;
456 -> 457 ;
458 [label="entropy = 0.0\nsamples = 3\nvalue = [0, 0, 3, 0]\nclass = 2", fillcolor="#399de5"] ;
457 -> 458 ;
459 [label="entropy = 0.0\nsamples = 1\nvalue = [0, 1, 0, 0]\nclass = 1", fillcolor="#47e539"] ;
457 -> 459 ;
460 [label="entropy = 0.0\nsamples = 1\nvalue = [0, 1, 0, 0]\nclass = 1", fillcolor="#47e539"] ;
456 -> 460 ;
461 [label="Gross Margin <= -0.38\nentropy = 1.89\nsamples = 27\nvalue = [4, 11, 5, 7]\nclass = 1", fillcolor="#dafad7"] ;
27 -> 461 ;
462 [label="PE <= -0.74\nentropy = 1.81\nsamples = 23\nvalue = [3, 11, 5, 4]\nclass = 1", fillcolor="#c2f6bd"] ;
461 -> 462 ;
463 [label="PE <= -0.83\nentropy = 0.81\nsamples = 4\nvalue = [1, 3, 0, 0]\nclass = 1", fillcolor="#84ee7b"] ;
462 -> 463 ;
464 [label="entropy = 0.0\nsamples = 1\nvalue = [1, 0, 0, 0]\nclass = 0", fillcolor="#e58139"] ;
463 -> 464 ;
465 [label="entropy = 0.0\nsamples = 3\nvalue = [0, 3, 0, 0]\nclass = 1", fillcolor="#47e539"] ;
463 -> 465 ;
466 [label="PEG <= 2.43\nentropy = 1.85\nsamples = 19\nvalue = [2, 8, 5, 4]\nclass = 1", fillcolor="#d8f9d5"] ;
462 -> 466 ;
467 [label="Profit Margin <= 0.76\nentropy = 1.91\nsamples = 15\nvalue = [2, 5, 5, 3]\nclass = 1", fillcolor="#ffffff"] ;
466 -> 467 ;
468 [label="PEG <= 1.24\nentropy = 1.0\nsamples = 2\nvalue = [1, 0, 0, 1]\nclass = 0", fillcolor="#ffffff"] ;
467 -> 468 ;
469 [label="entropy = 0.0\nsamples = 1\nvalue = [0, 0, 0, 1]\nclass = 3", fillcolor="#d739e5"] ;
468 -> 469 ;
470 [label="entropy = 0.0\nsamples = 1\nvalue = [1, 0, 0, 0]\nclass = 0", fillcolor="#e58139"] ;
468 -> 470 ;
471 [label="PEG <= 0.2\nentropy = 1.76\nsamples = 13\nvalue = [1, 5, 5, 2]\nclass = 1", fillcolor="#ffffff"] ;
467 -> 471 ;
472 [label="PE <= -0.34\nentropy = 0.92\nsamples = 6\nvalue = [0, 2, 4, 0]\nclass = 2", fillcolor="#9ccef2"] ;
471 -> 472 ;
473 [label="entropy = 0.0\nsamples = 3\nvalue = [0, 0, 3, 0]\nclass = 2", fillcolor="#399de5"] ;
472 -> 473 ;
474 [label="After Tax ROE <= -0.42\nentropy = 0.92\nsamples = 3\nvalue = [0, 2, 1, 0]\nclass = 1", fillcolor="#a3f29c"] ;
472 -> 474 ;
475 [label="entropy = 0.0\nsamples = 1\nvalue = [0, 0, 1, 0]\nclass = 2", fillcolor="#399de5"] ;
474 -> 475 ;
476 [label="entropy = 0.0\nsamples = 2\nvalue = [0, 2, 0, 0]\nclass = 1", fillcolor="#47e539"] ;
474 -> 476 ;
477 [label="PEG <= 1.66\nentropy = 1.84\nsamples = 7\nvalue = [1, 3, 1, 2]\nclass = 1", fillcolor="#dafad7"] ;
471 -> 477 ;
478 [label="After Tax ROE <= -0.38\nentropy = 1.46\nsamples = 6\nvalue = [0, 3, 1, 2]\nclass = 1", fillcolor="#d1f8ce"] ;
477 -> 478 ;
479 [label="PE <= -0.37\nentropy = 1.0\nsamples = 2\nvalue = [0, 0, 1, 1]\nclass = 2", fillcolor="#ffffff"] ;
478 -> 479 ;
480 [label="entropy = 0.0\nsamples = 1\nvalue = [0, 0, 0, 1]\nclass = 3", fillcolor="#d739e5"] ;
479 -> 480 ;
481 [label="entropy = 0.0\nsamples = 1\nvalue = [0, 0, 1, 0]\nclass = 2", fillcolor="#399de5"] ;
479 -> 481 ;
482 [label="After Tax ROE <= 0.22\nentropy = 0.81\nsamples = 4\nvalue = [0, 3, 0, 1]\nclass = 1", fillcolor="#84ee7b"] ;
478 -> 482 ;
483 [label="entropy = 0.0\nsamples = 3\nvalue = [0, 3, 0, 0]\nclass = 1", fillcolor="#47e539"] ;
482 -> 483 ;
484 [label="entropy = 0.0\nsamples = 1\nvalue = [0, 0, 0, 1]\nclass = 3", fillcolor="#d739e5"] ;
482 -> 484 ;
485 [label="entropy = 0.0\nsamples = 1\nvalue = [1, 0, 0, 0]\nclass = 0", fillcolor="#e58139"] ;
477 -> 485 ;
486 [label="After Tax ROE <= -0.43\nentropy = 0.81\nsamples = 4\nvalue = [0, 3, 0, 1]\nclass = 1", fillcolor="#84ee7b"] ;
466 -> 486 ;
487 [label="entropy = 0.0\nsamples = 2\nvalue = [0, 2, 0, 0]\nclass = 1", fillcolor="#47e539"] ;
486 -> 487 ;
488 [label="After Tax ROE <= -0.29\nentropy = 1.0\nsamples = 2\nvalue = [0, 1, 0, 1]\nclass = 1", fillcolor="#ffffff"] ;
486 -> 488 ;
489 [label="entropy = 0.0\nsamples = 1\nvalue = [0, 1, 0, 0]\nclass = 1", fillcolor="#47e539"] ;
488 -> 489 ;
490 [label="entropy = 0.0\nsamples = 1\nvalue = [0, 0, 0, 1]\nclass = 3", fillcolor="#d739e5"] ;
488 -> 490 ;
491 [label="PE <= -0.02\nentropy = 0.81\nsamples = 4\nvalue = [1, 0, 0, 3]\nclass = 3", fillcolor="#e47bee"] ;
461 -> 491 ;
492 [label="entropy = 0.0\nsamples = 3\nvalue = [0, 0, 0, 3]\nclass = 3", fillcolor="#d739e5"] ;
491 -> 492 ;
493 [label="entropy = 0.0\nsamples = 1\nvalue = [1, 0, 0, 0]\nclass = 0", fillcolor="#e58139"] ;
491 -> 493 ;
494 [label="PEG <= 5.37\nentropy = 1.99\nsamples = 406\nvalue = [105, 108, 112, 81]\nclass = 2", fillcolor="#fcfeff"] ;
26 -> 494 ;
495 [label="PE <= -1.33\nentropy = 1.99\nsamples = 399\nvalue = [102, 106, 112, 79]\nclass = 2", fillcolor="#fbfdfe"] ;
494 -> 495 ;
496 [label="Profit Margin <= 1.27\nentropy = 1.0\nsamples = 4\nvalue = [0, 0, 2, 2]\nclass = 2", fillcolor="#ffffff"] ;
495 -> 496 ;
497 [label="Cash Ratio <= -0.13\nentropy = 0.92\nsamples = 3\nvalue = [0, 0, 2, 1]\nclass = 2", fillcolor="#9ccef2"] ;
496 -> 497 ;
498 [label="entropy = 0.0\nsamples = 1\nvalue = [0, 0, 0, 1]\nclass = 3", fillcolor="#d739e5"] ;
497 -> 498 ;
499 [label="entropy = 0.0\nsamples = 2\nvalue = [0, 0, 2, 0]\nclass = 2", fillcolor="#399de5"] ;
497 -> 499 ;
500 [label="entropy = 0.0\nsamples = 1\nvalue = [0, 0, 0, 1]\nclass = 3", fillcolor="#d739e5"] ;
496 -> 500 ;
501 [label="PEG <= -0.83\nentropy = 1.99\nsamples = 395\nvalue = [102, 106, 110, 77]\nclass = 2", fillcolor="#fcfeff"] ;
495 -> 501 ;
502 [label="PEG <= -1.27\nentropy = 1.88\nsamples = 54\nvalue = [8, 12, 23, 11]\nclass = 2", fillcolor="#cbe5f8"] ;
501 -> 502 ;
503 [label="Cash Ratio <= 0.22\nentropy = 1.88\nsamples = 36\nvalue = [4, 8, 14, 10]\nclass = 2", fillcolor="#e1f0fb"] ;
502 -> 503 ;
504 [label="Cash Ratio <= -0.12\nentropy = 1.68\nsamples = 20\nvalue = [1, 7, 9, 3]\nclass = 2", fillcolor="#e1f0fb"] ;
503 -> 504 ;
505 [label="PEG <= -3.3\nentropy = 1.74\nsamples = 17\nvalue = [1, 7, 6, 3]\nclass = 1", fillcolor="#eefded"] ;
504 -> 505 ;
506 [label="After Tax ROE <= -0.2\nentropy = 1.58\nsamples = 3\nvalue = [1, 1, 0, 1]\nclass = 0", fillcolor="#ffffff"] ;
505 -> 506 ;
507 [label="Gross Margin <= 0.02\nentropy = 1.0\nsamples = 2\nvalue = [1, 1, 0, 0]\nclass = 0", fillcolor="#ffffff"] ;
506 -> 507 ;
508 [label="entropy = 0.0\nsamples = 1\nvalue = [1, 0, 0, 0]\nclass = 0", fillcolor="#e58139"] ;
507 -> 508 ;
509 [label="entropy = 0.0\nsamples = 1\nvalue = [0, 1, 0, 0]\nclass = 1", fillcolor="#47e539"] ;
507 -> 509 ;
510 [label="entropy = 0.0\nsamples = 1\nvalue = [0, 0, 0, 1]\nclass = 3", fillcolor="#d739e5"] ;
506 -> 510 ;
511 [label="Operating Margin <= 0.18\nentropy = 1.45\nsamples = 14\nvalue = [0, 6, 6, 2]\nclass = 1", fillcolor="#ffffff"] ;
505 -> 511 ;
512 [label="entropy = 0.0\nsamples = 3\nvalue = [0, 3, 0, 0]\nclass = 1", fillcolor="#47e539"] ;
511 -> 512 ;
513 [label="Operating Margin <= 0.4\nentropy = 1.44\nsamples = 11\nvalue = [0, 3, 6, 2]\nclass = 2", fillcolor="#b5daf5"] ;
511 -> 513 ;
514 [label="Operating Margin <= 0.24\nentropy = 1.46\nsamples = 6\nvalue = [0, 3, 2, 1]\nclass = 1", fillcolor="#d1f8ce"] ;
513 -> 514 ;
515 [label="PEG <= -2.58\nentropy = 0.97\nsamples = 5\nvalue = [0, 3, 2, 0]\nclass = 1", fillcolor="#c2f6bd"] ;
514 -> 515 ;
516 [label="entropy = 0.0\nsamples = 1\nvalue = [0, 0, 1, 0]\nclass = 2", fillcolor="#399de5"] ;
515 -> 516 ;
517 [label="PE <= -0.63\nentropy = 0.81\nsamples = 4\nvalue = [0, 3, 1, 0]\nclass = 1", fillcolor="#84ee7b"] ;
515 -> 517 ;
518 [label="entropy = 0.0\nsamples = 1\nvalue = [0, 0, 1, 0]\nclass = 2", fillcolor="#399de5"] ;
517 -> 518 ;
519 [label="entropy = 0.0\nsamples = 3\nvalue = [0, 3, 0, 0]\nclass = 1", fillcolor="#47e539"] ;
517 -> 519 ;
520 [label="entropy = 0.0\nsamples = 1\nvalue = [0, 0, 0, 1]\nclass = 3", fillcolor="#d739e5"] ;
514 -> 520 ;
521 [label="After Tax ROE <= 0.89\nentropy = 0.72\nsamples = 5\nvalue = [0, 0, 4, 1]\nclass = 2", fillcolor="#6ab6ec"] ;
513 -> 521 ;
522 [label="entropy = 0.0\nsamples = 4\nvalue = [0, 0, 4, 0]\nclass = 2", fillcolor="#399de5"] ;
521 -> 522 ;
523 [label="entropy = 0.0\nsamples = 1\nvalue = [0, 0, 0, 1]\nclass = 3", fillcolor="#d739e5"] ;
521 -> 523 ;
524 [label="entropy = 0.0\nsamples = 3\nvalue = [0, 0, 3, 0]\nclass = 2", fillcolor="#399de5"] ;
504 -> 524 ;
525 [label="Cash Ratio <= 1.96\nentropy = 1.75\nsamples = 16\nvalue = [3, 1, 5, 7]\nclass = 3", fillcolor="#f8dbfa"] ;
503 -> 525 ;
526 [label="Profit Margin <= -0.03\nentropy = 1.46\nsamples = 13\nvalue = [2, 0, 5, 6]\nclass = 3", fillcolor="#fae6fc"] ;
525 -> 526 ;
527 [label="entropy = 0.0\nsamples = 3\nvalue = [0, 0, 0, 3]\nclass = 3", fillcolor="#d739e5"] ;
526 -> 527 ;
528 [label="PEG <= -2.61\nentropy = 1.49\nsamples = 10\nvalue = [2, 0, 5, 3]\nclass = 2", fillcolor="#c6e3f8"] ;
526 -> 528 ;
529 [label="entropy = 0.0\nsamples = 2\nvalue = [0, 0, 2, 0]\nclass = 2", fillcolor="#399de5"] ;
528 -> 529 ;
530 [label="Profit Margin <= 0.31\nentropy = 1.56\nsamples = 8\nvalue = [2, 0, 3, 3]\nclass = 2", fillcolor="#ffffff"] ;
528 -> 530 ;
531 [label="Profit Margin <= 0.27\nentropy = 0.92\nsamples = 3\nvalue = [2, 0, 1, 0]\nclass = 0", fillcolor="#f2c09c"] ;
530 -> 531 ;
532 [label="entropy = 0.0\nsamples = 2\nvalue = [2, 0, 0, 0]\nclass = 0", fillcolor="#e58139"] ;
531 -> 532 ;
533 [label="entropy = 0.0\nsamples = 1\nvalue = [0, 0, 1, 0]\nclass = 2", fillcolor="#399de5"] ;
531 -> 533 ;
534 [label="Gross Margin <= 0.64\nentropy = 0.97\nsamples = 5\nvalue = [0, 0, 2, 3]\nclass = 3", fillcolor="#f2bdf6"] ;
530 -> 534 ;
535 [label="Profit Margin <= 0.49\nentropy = 0.92\nsamples = 3\nvalue = [0, 0, 2, 1]\nclass = 2", fillcolor="#9ccef2"] ;
534 -> 535 ;
536 [label="entropy = 0.0\nsamples = 2\nvalue = [0, 0, 2, 0]\nclass = 2", fillcolor="#399de5"] ;
535 -> 536 ;
537 [label="entropy = 0.0\nsamples = 1\nvalue = [0, 0, 0, 1]\nclass = 3", fillcolor="#d739e5"] ;
535 -> 537 ;
538 [label="entropy = 0.0\nsamples = 2\nvalue = [0, 0, 0, 2]\nclass = 3", fillcolor="#d739e5"] ;
534 -> 538 ;
539 [label="Cash Ratio <= 2.92\nentropy = 1.58\nsamples = 3\nvalue = [1, 1, 0, 1]\nclass = 0", fillcolor="#ffffff"] ;
525 -> 539 ;
540 [label="Profit Margin <= -0.35\nentropy = 1.0\nsamples = 2\nvalue = [0, 1, 0, 1]\nclass = 1", fillcolor="#ffffff"] ;
539 -> 540 ;
541 [label="entropy = 0.0\nsamples = 1\nvalue = [0, 1, 0, 0]\nclass = 1", fillcolor="#47e539"] ;
540 -> 541 ;
542 [label="entropy = 0.0\nsamples = 1\nvalue = [0, 0, 0, 1]\nclass = 3", fillcolor="#d739e5"] ;
540 -> 542 ;
543 [label="entropy = 0.0\nsamples = 1\nvalue = [1, 0, 0, 0]\nclass = 0", fillcolor="#e58139"] ;
539 -> 543 ;
544 [label="PEG <= -1.02\nentropy = 1.7\nsamples = 18\nvalue = [4, 4, 9, 1]\nclass = 2", fillcolor="#b8dcf6"] ;
502 -> 544 ;
545 [label="Cash Ratio <= -0.67\nentropy = 1.49\nsamples = 11\nvalue = [2, 4, 5, 0]\nclass = 2", fillcolor="#e3f1fb"] ;
544 -> 545 ;
546 [label="PE <= 0.46\nentropy = 1.0\nsamples = 2\nvalue = [1, 0, 1, 0]\nclass = 0", fillcolor="#ffffff"] ;
545 -> 546 ;
547 [label="entropy = 0.0\nsamples = 1\nvalue = [0, 0, 1, 0]\nclass = 2", fillcolor="#399de5"] ;
546 -> 547 ;
548 [label="entropy = 0.0\nsamples = 1\nvalue = [1, 0, 0, 0]\nclass = 0", fillcolor="#e58139"] ;
546 -> 548 ;
549 [label="PEG <= -1.1\nentropy = 1.39\nsamples = 9\nvalue = [1, 4, 4, 0]\nclass = 1", fillcolor="#ffffff"] ;
545 -> 549 ;
550 [label="PE <= -0.25\nentropy = 1.38\nsamples = 7\nvalue = [1, 4, 2, 0]\nclass = 1", fillcolor="#b5f5b0"] ;
549 -> 550 ;
551 [label="PE <= -0.63\nentropy = 1.0\nsamples = 2\nvalue = [1, 1, 0, 0]\nclass = 0", fillcolor="#ffffff"] ;
550 -> 551 ;
552 [label="entropy = 0.0\nsamples = 1\nvalue = [0, 1, 0, 0]\nclass = 1", fillcolor="#47e539"] ;
551 -> 552 ;
553 [label="entropy = 0.0\nsamples = 1\nvalue = [1, 0, 0, 0]\nclass = 0", fillcolor="#e58139"] ;
551 -> 553 ;
554 [label="Profit Margin <= 1.83\nentropy = 0.97\nsamples = 5\nvalue = [0, 3, 2, 0]\nclass = 1", fillcolor="#c2f6bd"] ;
550 -> 554 ;
555 [label="PE <= 2.14\nentropy = 0.81\nsamples = 4\nvalue = [0, 3, 1, 0]\nclass = 1", fillcolor="#84ee7b"] ;
554 -> 555 ;
556 [label="entropy = 0.0\nsamples = 1\nvalue = [0, 0, 1, 0]\nclass = 2", fillcolor="#399de5"] ;
555 -> 556 ;
557 [label="entropy = 0.0\nsamples = 3\nvalue = [0, 3, 0, 0]\nclass = 1", fillcolor="#47e539"] ;
555 -> 557 ;
558 [label="entropy = 0.0\nsamples = 1\nvalue = [0, 0, 1, 0]\nclass = 2", fillcolor="#399de5"] ;
554 -> 558 ;
559 [label="entropy = 0.0\nsamples = 2\nvalue = [0, 0, 2, 0]\nclass = 2", fillcolor="#399de5"] ;
549 -> 559 ;
560 [label="Profit Margin <= 0.75\nentropy = 1.38\nsamples = 7\nvalue = [2, 0, 4, 1]\nclass = 2", fillcolor="#b0d8f5"] ;
544 -> 560 ;
561 [label="Gross Margin <= 0.08\nentropy = 0.97\nsamples = 5\nvalue = [2, 0, 3, 0]\nclass = 2", fillcolor="#bddef6"] ;
560 -> 561 ;
562 [label="PEG <= -0.86\nentropy = 0.81\nsamples = 4\nvalue = [1, 0, 3, 0]\nclass = 2", fillcolor="#7bbeee"] ;
561 -> 562 ;
563 [label="entropy = 0.0\nsamples = 3\nvalue = [0, 0, 3, 0]\nclass = 2", fillcolor="#399de5"] ;
562 -> 563 ;
564 [label="entropy = 0.0\nsamples = 1\nvalue = [1, 0, 0, 0]\nclass = 0", fillcolor="#e58139"] ;
562 -> 564 ;
565 [label="entropy = 0.0\nsamples = 1\nvalue = [1, 0, 0, 0]\nclass = 0", fillcolor="#e58139"] ;
561 -> 565 ;
566 [label="PEG <= -1.0\nentropy = 1.0\nsamples = 2\nvalue = [0, 0, 1, 1]\nclass = 2", fillcolor="#ffffff"] ;
560 -> 566 ;
567 [label="entropy = 0.0\nsamples = 1\nvalue = [0, 0, 1, 0]\nclass = 2", fillcolor="#399de5"] ;
566 -> 567 ;
568 [label="entropy = 0.0\nsamples = 1\nvalue = [0, 0, 0, 1]\nclass = 3", fillcolor="#d739e5"] ;
566 -> 568 ;
569 [label="Gross Margin <= 0.12\nentropy = 1.99\nsamples = 341\nvalue = [94, 94, 87, 66]\nclass = 0", fillcolor="#ffffff"] ;
501 -> 569 ;
570 [label="PEG <= 0.36\nentropy = 1.97\nsamples = 149\nvalue = [44, 46, 32, 27]\nclass = 1", fillcolor="#fbfffb"] ;
569 -> 570 ;
571 [label="PE <= 1.62\nentropy = 1.93\nsamples = 89\nvalue = [22, 34, 15, 18]\nclass = 1", fillcolor="#defadc"] ;
570 -> 571 ;
572 [label="PEG <= 0.33\nentropy = 1.91\nsamples = 84\nvalue = [22, 33, 14, 15]\nclass = 1", fillcolor="#defadc"] ;
571 -> 572 ;
573 [label="PE <= -0.13\nentropy = 1.9\nsamples = 83\nvalue = [22, 33, 13, 15]\nclass = 1", fillcolor="#defadb"] ;
572 -> 573 ;
574 [label="PEG <= -0.48\nentropy = 1.82\nsamples = 50\nvalue = [9, 24, 8, 9]\nclass = 1", fillcolor="#bcf5b7"] ;
573 -> 574 ;
575 [label="After Tax ROE <= 1.95\nentropy = 1.58\nsamples = 6\nvalue = [2, 2, 0, 2]\nclass = 0", fillcolor="#ffffff"] ;
574 -> 575 ;
576 [label="Cash Ratio <= -0.1\nentropy = 1.52\nsamples = 5\nvalue = [1, 2, 0, 2]\nclass = 1", fillcolor="#ffffff"] ;
575 -> 576 ;
577 [label="entropy = 0.0\nsamples = 2\nvalue = [0, 0, 0, 2]\nclass = 3", fillcolor="#d739e5"] ;
576 -> 577 ;
578 [label="PEG <= -0.81\nentropy = 0.92\nsamples = 3\nvalue = [1, 2, 0, 0]\nclass = 1", fillcolor="#a3f29c"] ;
576 -> 578 ;
579 [label="entropy = 0.0\nsamples = 1\nvalue = [1, 0, 0, 0]\nclass = 0", fillcolor="#e58139"] ;
578 -> 579 ;
580 [label="entropy = 0.0\nsamples = 2\nvalue = [0, 2, 0, 0]\nclass = 1", fillcolor="#47e539"] ;
578 -> 580 ;
581 [label="entropy = 0.0\nsamples = 1\nvalue = [1, 0, 0, 0]\nclass = 0", fillcolor="#e58139"] ;
575 -> 581 ;
582 [label="After Tax ROE <= 0.57\nentropy = 1.79\nsamples = 44\nvalue = [7, 22, 8, 7]\nclass = 1", fillcolor="#b7f5b2"] ;
574 -> 582 ;
583 [label="After Tax ROE <= -0.43\nentropy = 1.8\nsamples = 26\nvalue = [7, 12, 4, 3]\nclass = 1", fillcolor="#cff8cb"] ;
582 -> 583 ;
584 [label="entropy = 0.0\nsamples = 1\nvalue = [0, 0, 1, 0]\nclass = 2", fillcolor="#399de5"] ;
583 -> 584 ;
585 [label="Gross Margin <= -0.35\nentropy = 1.76\nsamples = 25\nvalue = [7, 12, 3, 3]\nclass = 1", fillcolor="#ccf8c8"] ;
583 -> 585 ;
586 [label="After Tax ROE <= -0.32\nentropy = 1.52\nsamples = 5\nvalue = [1, 2, 2, 0]\nclass = 1", fillcolor="#ffffff"] ;
585 -> 586 ;
587 [label="PEG <= -0.06\nentropy = 1.5\nsamples = 4\nvalue = [1, 2, 1, 0]\nclass = 1", fillcolor="#c2f6bd"] ;
586 -> 587 ;
588 [label="entropy = 0.0\nsamples = 1\nvalue = [0, 0, 1, 0]\nclass = 2", fillcolor="#399de5"] ;
587 -> 588 ;
589 [label="Profit Margin <= 0.02\nentropy = 0.92\nsamples = 3\nvalue = [1, 2, 0, 0]\nclass = 1", fillcolor="#a3f29c"] ;
587 -> 589 ;
590 [label="entropy = 0.0\nsamples = 1\nvalue = [1, 0, 0, 0]\nclass = 0", fillcolor="#e58139"] ;
589 -> 590 ;
591 [label="entropy = 0.0\nsamples = 2\nvalue = [0, 2, 0, 0]\nclass = 1", fillcolor="#47e539"] ;
589 -> 591 ;
592 [label="entropy = 0.0\nsamples = 1\nvalue = [0, 0, 1, 0]\nclass = 2", fillcolor="#399de5"] ;
586 -> 592 ;
593 [label="Gross Margin <= -0.0\nentropy = 1.65\nsamples = 20\nvalue = [6, 10, 1, 3]\nclass = 1", fillcolor="#caf8c6"] ;
585 -> 593 ;
594 [label="Cash Ratio <= 1.27\nentropy = 1.68\nsamples = 16\nvalue = [6, 7, 1, 2]\nclass = 1", fillcolor="#edfceb"] ;
593 -> 594 ;
595 [label="Profit Margin <= -0.15\nentropy = 1.56\nsamples = 15\nvalue = [6, 7, 1, 1]\nclass = 1", fillcolor="#ebfce9"] ;
594 -> 595 ;
596 [label="Cash Ratio <= -0.29\nentropy = 1.0\nsamples = 2\nvalue = [1, 0, 1, 0]\nclass = 0", fillcolor="#ffffff"] ;
595 -> 596 ;
597 [label="entropy = 0.0\nsamples = 1\nvalue = [0, 0, 1, 0]\nclass = 2", fillcolor="#399de5"] ;
596 -> 597 ;
598 [label="entropy = 0.0\nsamples = 1\nvalue = [1, 0, 0, 0]\nclass = 0", fillcolor="#e58139"] ;
596 -> 598 ;
599 [label="Operating Margin <= 0.56\nentropy = 1.3\nsamples = 13\nvalue = [5, 7, 0, 1]\nclass = 1", fillcolor="#d1f8ce"] ;
595 -> 599 ;
600 [label="Cash Ratio <= -0.84\nentropy = 0.95\nsamples = 11\nvalue = [4, 7, 0, 0]\nclass = 1", fillcolor="#b0f4aa"] ;
599 -> 600 ;
601 [label="PEG <= 0.05\nentropy = 0.92\nsamples = 3\nvalue = [2, 1, 0, 0]\nclass = 0", fillcolor="#f2c09c"] ;
600 -> 601 ;
602 [label="entropy = 0.0\nsamples = 2\nvalue = [2, 0, 0, 0]\nclass = 0", fillcolor="#e58139"] ;
601 -> 602 ;
603 [label="entropy = 0.0\nsamples = 1\nvalue = [0, 1, 0, 0]\nclass = 1", fillcolor="#47e539"] ;
601 -> 603 ;
604 [label="PE <= -0.76\nentropy = 0.81\nsamples = 8\nvalue = [2, 6, 0, 0]\nclass = 1", fillcolor="#84ee7b"] ;
600 -> 604 ;
605 [label="Operating Margin <= 0.44\nentropy = 1.0\nsamples = 4\nvalue = [2, 2, 0, 0]\nclass = 0", fillcolor="#ffffff"] ;
604 -> 605 ;
606 [label="entropy = 0.0\nsamples = 2\nvalue = [2, 0, 0, 0]\nclass = 0", fillcolor="#e58139"] ;
605 -> 606 ;
607 [label="entropy = 0.0\nsamples = 2\nvalue = [0, 2, 0, 0]\nclass = 1", fillcolor="#47e539"] ;
605 -> 607 ;
608 [label="entropy = 0.0\nsamples = 4\nvalue = [0, 4, 0, 0]\nclass = 1", fillcolor="#47e539"] ;
604 -> 608 ;
609 [label="Gross Margin <= -0.22\nentropy = 1.0\nsamples = 2\nvalue = [1, 0, 0, 1]\nclass = 0", fillcolor="#ffffff"] ;
599 -> 609 ;
610 [label="entropy = 0.0\nsamples = 1\nvalue = [1, 0, 0, 0]\nclass = 0", fillcolor="#e58139"] ;
609 -> 610 ;
611 [label="entropy = 0.0\nsamples = 1\nvalue = [0, 0, 0, 1]\nclass = 3", fillcolor="#d739e5"] ;
609 -> 611 ;
612 [label="entropy = 0.0\nsamples = 1\nvalue = [0, 0, 0, 1]\nclass = 3", fillcolor="#d739e5"] ;
594 -> 612 ;
613 [label="Gross Margin <= 0.06\nentropy = 0.81\nsamples = 4\nvalue = [0, 3, 0, 1]\nclass = 1", fillcolor="#84ee7b"] ;
593 -> 613 ;
614 [label="entropy = 0.0\nsamples = 1\nvalue = [0, 0, 0, 1]\nclass = 3", fillcolor="#d739e5"] ;
613 -> 614 ;
615 [label="entropy = 0.0\nsamples = 3\nvalue = [0, 3, 0, 0]\nclass = 1", fillcolor="#47e539"] ;
613 -> 615 ;
616 [label="Gross Margin <= -0.09\nentropy = 1.44\nsamples = 18\nvalue = [0, 10, 4, 4]\nclass = 1", fillcolor="#b0f4aa"] ;
582 -> 616 ;
617 [label="Operating Margin <= 0.45\nentropy = 1.3\nsamples = 10\nvalue = [0, 6, 1, 3]\nclass = 1", fillcolor="#b0f4aa"] ;
616 -> 617 ;
618 [label="PEG <= 0.07\nentropy = 1.45\nsamples = 7\nvalue = [0, 3, 1, 3]\nclass = 1", fillcolor="#ffffff"] ;
617 -> 618 ;
619 [label="PEG <= -0.07\nentropy = 1.46\nsamples = 6\nvalue = [0, 3, 1, 2]\nclass = 1", fillcolor="#d1f8ce"] ;
618 -> 619 ;
620 [label="Operating Margin <= 0.36\nentropy = 1.5\nsamples = 4\nvalue = [0, 1, 1, 2]\nclass = 3", fillcolor="#f2bdf6"] ;
619 -> 620 ;
621 [label="Gross Margin <= -0.45\nentropy = 0.92\nsamples = 3\nvalue = [0, 1, 0, 2]\nclass = 3", fillcolor="#eb9cf2"] ;
620 -> 621 ;
622 [label="entropy = 0.0\nsamples = 1\nvalue = [0, 1, 0, 0]\nclass = 1", fillcolor="#47e539"] ;
621 -> 622 ;
623 [label="entropy = 0.0\nsamples = 2\nvalue = [0, 0, 0, 2]\nclass = 3", fillcolor="#d739e5"] ;
621 -> 623 ;
624 [label="entropy = 0.0\nsamples = 1\nvalue = [0, 0, 1, 0]\nclass = 2", fillcolor="#399de5"] ;
620 -> 624 ;
625 [label="entropy = 0.0\nsamples = 2\nvalue = [0, 2, 0, 0]\nclass = 1", fillcolor="#47e539"] ;
619 -> 625 ;
626 [label="entropy = 0.0\nsamples = 1\nvalue = [0, 0, 0, 1]\nclass = 3", fillcolor="#d739e5"] ;
618 -> 626 ;
627 [label="entropy = 0.0\nsamples = 3\nvalue = [0, 3, 0, 0]\nclass = 1", fillcolor="#47e539"] ;
617 -> 627 ;
628 [label="Gross Margin <= -0.03\nentropy = 1.41\nsamples = 8\nvalue = [0, 4, 3, 1]\nclass = 1", fillcolor="#dafad7"] ;
616 -> 628 ;
629 [label="PE <= -0.62\nentropy = 1.0\nsamples = 2\nvalue = [0, 0, 1, 1]\nclass = 2", fillcolor="#ffffff"] ;
628 -> 629 ;
630 [label="entropy = 0.0\nsamples = 1\nvalue = [0, 0, 0, 1]\nclass = 3", fillcolor="#d739e5"] ;
629 -> 630 ;
631 [label="entropy = 0.0\nsamples = 1\nvalue = [0, 0, 1, 0]\nclass = 2", fillcolor="#399de5"] ;
629 -> 631 ;
632 [label="PEG <= 0.16\nentropy = 0.92\nsamples = 6\nvalue = [0, 4, 2, 0]\nclass = 1", fillcolor="#a3f29c"] ;
628 -> 632 ;
633 [label="PEG <= 0.0\nentropy = 0.72\nsamples = 5\nvalue = [0, 4, 1, 0]\nclass = 1", fillcolor="#75ec6a"] ;
632 -> 633 ;
634 [label="entropy = 0.0\nsamples = 3\nvalue = [0, 3, 0, 0]\nclass = 1", fillcolor="#47e539"] ;
633 -> 634 ;
635 [label="PEG <= 0.06\nentropy = 1.0\nsamples = 2\nvalue = [0, 1, 1, 0]\nclass = 1", fillcolor="#ffffff"] ;
633 -> 635 ;
636 [label="entropy = 0.0\nsamples = 1\nvalue = [0, 1, 0, 0]\nclass = 1", fillcolor="#47e539"] ;
635 -> 636 ;
637 [label="entropy = 0.0\nsamples = 1\nvalue = [0, 0, 1, 0]\nclass = 2", fillcolor="#399de5"] ;
635 -> 637 ;
638 [label="entropy = 0.0\nsamples = 1\nvalue = [0, 0, 1, 0]\nclass = 2", fillcolor="#399de5"] ;
632 -> 638 ;
639 [label="PE <= -0.12\nentropy = 1.9\nsamples = 33\nvalue = [13, 9, 5, 6]\nclass = 0", fillcolor="#fbeade"] ;
573 -> 639 ;
640 [label="entropy = 0.0\nsamples = 2\nvalue = [0, 2, 0, 0]\nclass = 1", fillcolor="#47e539"] ;
639 -> 640 ;
641 [label="After Tax ROE <= -0.4\nentropy = 1.89\nsamples = 31\nvalue = [13, 7, 5, 6]\nclass = 0", fillcolor="#f8e0ce"] ;
639 -> 641 ;
642 [label="PE <= 0.36\nentropy = 1.56\nsamples = 8\nvalue = [3, 2, 0, 3]\nclass = 0", fillcolor="#ffffff"] ;
641 -> 642 ;
643 [label="entropy = 0.0\nsamples = 3\nvalue = [0, 0, 0, 3]\nclass = 3", fillcolor="#d739e5"] ;
642 -> 643 ;
644 [label="PE <= 1.1\nentropy = 0.97\nsamples = 5\nvalue = [3, 2, 0, 0]\nclass = 0", fillcolor="#f6d5bd"] ;
642 -> 644 ;
645 [label="entropy = 0.0\nsamples = 3\nvalue = [3, 0, 0, 0]\nclass = 0", fillcolor="#e58139"] ;
644 -> 645 ;
646 [label="entropy = 0.0\nsamples = 2\nvalue = [0, 2, 0, 0]\nclass = 1", fillcolor="#47e539"] ;
644 -> 646 ;
647 [label="Gross Margin <= -0.2\nentropy = 1.86\nsamples = 23\nvalue = [10, 5, 5, 3]\nclass = 0", fillcolor="#f8dcc8"] ;
641 -> 647 ;
648 [label="Cash Ratio <= -0.79\nentropy = 1.45\nsamples = 7\nvalue = [3, 3, 0, 1]\nclass = 0", fillcolor="#ffffff"] ;
647 -> 648 ;
649 [label="entropy = 0.0\nsamples = 1\nvalue = [0, 0, 0, 1]\nclass = 3", fillcolor="#d739e5"] ;
648 -> 649 ;
650 [label="Profit Margin <= 0.03\nentropy = 1.0\nsamples = 6\nvalue = [3, 3, 0, 0]\nclass = 0", fillcolor="#ffffff"] ;
648 -> 650 ;
651 [label="PE <= 0.45\nentropy = 0.81\nsamples = 4\nvalue = [3, 1, 0, 0]\nclass = 0", fillcolor="#eeab7b"] ;
650 -> 651 ;
652 [label="entropy = 0.0\nsamples = 3\nvalue = [3, 0, 0, 0]\nclass = 0", fillcolor="#e58139"] ;
651 -> 652 ;
653 [label="entropy = 0.0\nsamples = 1\nvalue = [0, 1, 0, 0]\nclass = 1", fillcolor="#47e539"] ;
651 -> 653 ;
654 [label="entropy = 0.0\nsamples = 2\nvalue = [0, 2, 0, 0]\nclass = 1", fillcolor="#47e539"] ;
650 -> 654 ;
655 [label="PEG <= -0.4\nentropy = 1.8\nsamples = 16\nvalue = [7, 2, 5, 2]\nclass = 0", fillcolor="#fae8db"] ;
647 -> 655 ;
656 [label="After Tax ROE <= 0.2\nentropy = 1.38\nsamples = 7\nvalue = [2, 0, 4, 1]\nclass = 2", fillcolor="#b0d8f5"] ;
655 -> 656 ;
657 [label="Cash Ratio <= -0.73\nentropy = 0.92\nsamples = 3\nvalue = [0, 0, 2, 1]\nclass = 2", fillcolor="#9ccef2"] ;
656 -> 657 ;
658 [label="entropy = 0.0\nsamples = 2\nvalue = [0, 0, 2, 0]\nclass = 2", fillcolor="#399de5"] ;
657 -> 658 ;
659 [label="entropy = 0.0\nsamples = 1\nvalue = [0, 0, 0, 1]\nclass = 3", fillcolor="#d739e5"] ;
657 -> 659 ;
660 [label="Profit Margin <= 0.29\nentropy = 1.0\nsamples = 4\nvalue = [2, 0, 2, 0]\nclass = 0", fillcolor="#ffffff"] ;
656 -> 660 ;
661 [label="entropy = 0.0\nsamples = 2\nvalue = [2, 0, 0, 0]\nclass = 0", fillcolor="#e58139"] ;
660 -> 661 ;
662 [label="entropy = 0.0\nsamples = 2\nvalue = [0, 0, 2, 0]\nclass = 2", fillcolor="#399de5"] ;
660 -> 662 ;
663 [label="Gross Margin <= -0.04\nentropy = 1.66\nsamples = 9\nvalue = [5, 2, 1, 1]\nclass = 0", fillcolor="#f4c9aa"] ;
655 -> 663 ;
664 [label="PEG <= 0.21\nentropy = 0.92\nsamples = 3\nvalue = [1, 2, 0, 0]\nclass = 1", fillcolor="#a3f29c"] ;
663 -> 664 ;
665 [label="entropy = 0.0\nsamples = 2\nvalue = [0, 2, 0, 0]\nclass = 1", fillcolor="#47e539"] ;
664 -> 665 ;
666 [label="entropy = 0.0\nsamples = 1\nvalue = [1, 0, 0, 0]\nclass = 0", fillcolor="#e58139"] ;
664 -> 666 ;
667 [label="Operating Margin <= 0.11\nentropy = 1.25\nsamples = 6\nvalue = [4, 0, 1, 1]\nclass = 0", fillcolor="#efb388"] ;
663 -> 667 ;
668 [label="entropy = 0.0\nsamples = 1\nvalue = [0, 0, 1, 0]\nclass = 2", fillcolor="#399de5"] ;
667 -> 668 ;
669 [label="Cash Ratio <= 1.24\nentropy = 0.72\nsamples = 5\nvalue = [4, 0, 0, 1]\nclass = 0", fillcolor="#eca06a"] ;
667 -> 669 ;
670 [label="entropy = 0.0\nsamples = 3\nvalue = [3, 0, 0, 0]\nclass = 0", fillcolor="#e58139"] ;
669 -> 670 ;
671 [label="PEG <= 0.01\nentropy = 1.0\nsamples = 2\nvalue = [1, 0, 0, 1]\nclass = 0", fillcolor="#ffffff"] ;
669 -> 671 ;
672 [label="entropy = 0.0\nsamples = 1\nvalue = [1, 0, 0, 0]\nclass = 0", fillcolor="#e58139"] ;
671 -> 672 ;
673 [label="entropy = 0.0\nsamples = 1\nvalue = [0, 0, 0, 1]\nclass = 3", fillcolor="#d739e5"] ;
671 -> 673 ;
674 [label="entropy = 0.0\nsamples = 1\nvalue = [0, 0, 1, 0]\nclass = 2", fillcolor="#399de5"] ;
572 -> 674 ;
675 [label="PEG <= -0.55\nentropy = 1.37\nsamples = 5\nvalue = [0, 1, 1, 3]\nclass = 3", fillcolor="#eb9cf2"] ;
571 -> 675 ;
676 [label="PEG <= -0.65\nentropy = 1.0\nsamples = 2\nvalue = [0, 1, 1, 0]\nclass = 1", fillcolor="#ffffff"] ;
675 -> 676 ;
677 [label="entropy = 0.0\nsamples = 1\nvalue = [0, 1, 0, 0]\nclass = 1", fillcolor="#47e539"] ;
676 -> 677 ;
678 [label="entropy = 0.0\nsamples = 1\nvalue = [0, 0, 1, 0]\nclass = 2", fillcolor="#399de5"] ;
676 -> 678 ;
679 [label="entropy = 0.0\nsamples = 3\nvalue = [0, 0, 0, 3]\nclass = 3", fillcolor="#d739e5"] ;
675 -> 679 ;
680 [label="Gross Margin <= -0.38\nentropy = 1.92\nsamples = 60\nvalue = [22, 12, 17, 9]\nclass = 0", fillcolor="#fcf0e8"] ;
570 -> 680 ;
681 [label="After Tax ROE <= 0.21\nentropy = 1.56\nsamples = 7\nvalue = [2, 0, 2, 3]\nclass = 3", fillcolor="#f7d7fa"] ;
680 -> 681 ;
682 [label="Operating Margin <= 0.08\nentropy = 1.52\nsamples = 5\nvalue = [2, 0, 2, 1]\nclass = 0", fillcolor="#ffffff"] ;
681 -> 682 ;
683 [label="PEG <= 0.9\nentropy = 1.0\nsamples = 2\nvalue = [0, 0, 1, 1]\nclass = 2", fillcolor="#ffffff"] ;
682 -> 683 ;
684 [label="entropy = 0.0\nsamples = 1\nvalue = [0, 0, 1, 0]\nclass = 2", fillcolor="#399de5"] ;
683 -> 684 ;
685 [label="entropy = 0.0\nsamples = 1\nvalue = [0, 0, 0, 1]\nclass = 3", fillcolor="#d739e5"] ;
683 -> 685 ;
686 [label="Operating Margin <= 0.13\nentropy = 0.92\nsamples = 3\nvalue = [2, 0, 1, 0]\nclass = 0", fillcolor="#f2c09c"] ;
682 -> 686 ;
687 [label="entropy = 0.0\nsamples = 2\nvalue = [2, 0, 0, 0]\nclass = 0", fillcolor="#e58139"] ;
686 -> 687 ;
688 [label="entropy = 0.0\nsamples = 1\nvalue = [0, 0, 1, 0]\nclass = 2", fillcolor="#399de5"] ;
686 -> 688 ;
689 [label="entropy = 0.0\nsamples = 2\nvalue = [0, 0, 0, 2]\nclass = 3", fillcolor="#d739e5"] ;
681 -> 689 ;
690 [label="Profit Margin <= 0.66\nentropy = 1.89\nsamples = 53\nvalue = [20, 12, 15, 6]\nclass = 0", fillcolor="#fceee5"] ;
680 -> 690 ;
691 [label="Cash Ratio <= -0.22\nentropy = 1.88\nsamples = 50\nvalue = [19, 10, 15, 6]\nclass = 0", fillcolor="#fcf1e8"] ;
690 -> 691 ;
692 [label="Gross Margin <= -0.28\nentropy = 1.76\nsamples = 31\nvalue = [15, 5, 8, 3]\nclass = 0", fillcolor="#f7d9c3"] ;
691 -> 692 ;
693 [label="PEG <= 1.77\nentropy = 0.54\nsamples = 8\nvalue = [7, 0, 1, 0]\nclass = 0", fillcolor="#e99355"] ;
692 -> 693 ;
694 [label="entropy = 0.0\nsamples = 6\nvalue = [6, 0, 0, 0]\nclass = 0", fillcolor="#e58139"] ;
693 -> 694 ;
695 [label="Cash Ratio <= -0.83\nentropy = 1.0\nsamples = 2\nvalue = [1, 0, 1, 0]\nclass = 0", fillcolor="#ffffff"] ;
693 -> 695 ;
696 [label="entropy = 0.0\nsamples = 1\nvalue = [0, 0, 1, 0]\nclass = 2", fillcolor="#399de5"] ;
695 -> 696 ;
697 [label="entropy = 0.0\nsamples = 1\nvalue = [1, 0, 0, 0]\nclass = 0", fillcolor="#e58139"] ;
695 -> 697 ;
698 [label="PE <= -0.01\nentropy = 1.91\nsamples = 23\nvalue = [8, 5, 7, 3]\nclass = 0", fillcolor="#fdf7f3"] ;
692 -> 698 ;
699 [label="PEG <= 2.22\nentropy = 1.92\nsamples = 13\nvalue = [2, 3, 5, 3]\nclass = 2", fillcolor="#d7ebfa"] ;
698 -> 699 ;
700 [label="After Tax ROE <= -0.41\nentropy = 1.79\nsamples = 11\nvalue = [2, 1, 5, 3]\nclass = 2", fillcolor="#cee6f8"] ;
699 -> 700 ;
701 [label="PE <= -0.02\nentropy = 1.0\nsamples = 2\nvalue = [1, 1, 0, 0]\nclass = 0", fillcolor="#ffffff"] ;
700 -> 701 ;
702 [label="entropy = 0.0\nsamples = 1\nvalue = [1, 0, 0, 0]\nclass = 0", fillcolor="#e58139"] ;
701 -> 702 ;
703 [label="entropy = 0.0\nsamples = 1\nvalue = [0, 1, 0, 0]\nclass = 1", fillcolor="#47e539"] ;
701 -> 703 ;
704 [label="Gross Margin <= 0.02\nentropy = 1.35\nsamples = 9\nvalue = [1, 0, 5, 3]\nclass = 2", fillcolor="#bddef6"] ;
700 -> 704 ;
705 [label="Profit Margin <= -0.01\nentropy = 1.46\nsamples = 6\nvalue = [1, 0, 2, 3]\nclass = 3", fillcolor="#f5cef8"] ;
704 -> 705 ;
706 [label="entropy = 0.0\nsamples = 1\nvalue = [1, 0, 0, 0]\nclass = 0", fillcolor="#e58139"] ;
705 -> 706 ;
707 [label="PE <= -0.52\nentropy = 0.97\nsamples = 5\nvalue = [0, 0, 2, 3]\nclass = 3", fillcolor="#f2bdf6"] ;
705 -> 707 ;
708 [label="entropy = 0.0\nsamples = 1\nvalue = [0, 0, 1, 0]\nclass = 2", fillcolor="#399de5"] ;
707 -> 708 ;
709 [label="Profit Margin <= 0.1\nentropy = 0.81\nsamples = 4\nvalue = [0, 0, 1, 3]\nclass = 3", fillcolor="#e47bee"] ;
707 -> 709 ;
710 [label="PE <= -0.06\nentropy = 1.0\nsamples = 2\nvalue = [0, 0, 1, 1]\nclass = 2", fillcolor="#ffffff"] ;
709 -> 710 ;
711 [label="entropy = 0.0\nsamples = 1\nvalue = [0, 0, 0, 1]\nclass = 3", fillcolor="#d739e5"] ;
710 -> 711 ;
712 [label="entropy = 0.0\nsamples = 1\nvalue = [0, 0, 1, 0]\nclass = 2", fillcolor="#399de5"] ;
710 -> 712 ;
713 [label="entropy = 0.0\nsamples = 2\nvalue = [0, 0, 0, 2]\nclass = 3", fillcolor="#d739e5"] ;
709 -> 713 ;
714 [label="entropy = 0.0\nsamples = 3\nvalue = [0, 0, 3, 0]\nclass = 2", fillcolor="#399de5"] ;
704 -> 714 ;
715 [label="entropy = 0.0\nsamples = 2\nvalue = [0, 2, 0, 0]\nclass = 1", fillcolor="#47e539"] ;
699 -> 715 ;
716 [label="Cash Ratio <= -0.66\nentropy = 1.37\nsamples = 10\nvalue = [6, 2, 2, 0]\nclass = 0", fillcolor="#f2c09c"] ;
698 -> 716 ;
717 [label="After Tax ROE <= 0.21\nentropy = 1.5\nsamples = 4\nvalue = [1, 2, 1, 0]\nclass = 1", fillcolor="#c2f6bd"] ;
716 -> 717 ;
718 [label="PEG <= 0.66\nentropy = 1.0\nsamples = 2\nvalue = [1, 0, 1, 0]\nclass = 0", fillcolor="#ffffff"] ;
717 -> 718 ;
719 [label="entropy = 0.0\nsamples = 1\nvalue = [1, 0, 0, 0]\nclass = 0", fillcolor="#e58139"] ;
718 -> 719 ;
720 [label="entropy = 0.0\nsamples = 1\nvalue = [0, 0, 1, 0]\nclass = 2", fillcolor="#399de5"] ;
718 -> 720 ;
721 [label="entropy = 0.0\nsamples = 2\nvalue = [0, 2, 0, 0]\nclass = 1", fillcolor="#47e539"] ;
717 -> 721 ;
722 [label="After Tax ROE <= 0.23\nentropy = 0.65\nsamples = 6\nvalue = [5, 0, 1, 0]\nclass = 0", fillcolor="#ea9a61"] ;
716 -> 722 ;
723 [label="entropy = 0.0\nsamples = 3\nvalue = [3, 0, 0, 0]\nclass = 0", fillcolor="#e58139"] ;
722 -> 723 ;
724 [label="Gross Margin <= 0.06\nentropy = 0.92\nsamples = 3\nvalue = [2, 0, 1, 0]\nclass = 0", fillcolor="#f2c09c"] ;
722 -> 724 ;
725 [label="entropy = 0.0\nsamples = 1\nvalue = [0, 0, 1, 0]\nclass = 2", fillcolor="#399de5"] ;
724 -> 725 ;
726 [label="entropy = 0.0\nsamples = 2\nvalue = [2, 0, 0, 0]\nclass = 0", fillcolor="#e58139"] ;
724 -> 726 ;
727 [label="Operating Margin <= -0.01\nentropy = 1.93\nsamples = 19\nvalue = [4, 5, 7, 3]\nclass = 2", fillcolor="#e3f1fb"] ;
691 -> 727 ;
728 [label="Cash Ratio <= -0.05\nentropy = 1.0\nsamples = 4\nvalue = [2, 2, 0, 0]\nclass = 0", fillcolor="#ffffff"] ;
727 -> 728 ;
729 [label="entropy = 0.0\nsamples = 1\nvalue = [0, 1, 0, 0]\nclass = 1", fillcolor="#47e539"] ;
728 -> 729 ;
730 [label="After Tax ROE <= 0.13\nentropy = 0.92\nsamples = 3\nvalue = [2, 1, 0, 0]\nclass = 0", fillcolor="#f2c09c"] ;
728 -> 730 ;
731 [label="entropy = 0.0\nsamples = 2\nvalue = [2, 0, 0, 0]\nclass = 0", fillcolor="#e58139"] ;
730 -> 731 ;
732 [label="entropy = 0.0\nsamples = 1\nvalue = [0, 1, 0, 0]\nclass = 1", fillcolor="#47e539"] ;
730 -> 732 ;
733 [label="After Tax ROE <= 0.66\nentropy = 1.83\nsamples = 15\nvalue = [2, 3, 7, 3]\nclass = 2", fillcolor="#bddef6"] ;
727 -> 733 ;
734 [label="After Tax ROE <= 0.55\nentropy = 1.94\nsamples = 11\nvalue = [2, 3, 4, 2]\nclass = 2", fillcolor="#e6f3fc"] ;
733 -> 734 ;
735 [label="PEG <= 2.32\nentropy = 1.84\nsamples = 9\nvalue = [2, 1, 4, 2]\nclass = 2", fillcolor="#c6e3f8"] ;
734 -> 735 ;
736 [label="PE <= -0.32\nentropy = 1.95\nsamples = 7\nvalue = [2, 1, 2, 2]\nclass = 0", fillcolor="#ffffff"] ;
735 -> 736 ;
737 [label="Operating Margin <= 0.18\nentropy = 1.0\nsamples = 2\nvalue = [1, 1, 0, 0]\nclass = 0", fillcolor="#ffffff"] ;
736 -> 737 ;
738 [label="entropy = 0.0\nsamples = 1\nvalue = [1, 0, 0, 0]\nclass = 0", fillcolor="#e58139"] ;
737 -> 738 ;
739 [label="entropy = 0.0\nsamples = 1\nvalue = [0, 1, 0, 0]\nclass = 1", fillcolor="#47e539"] ;
737 -> 739 ;
740 [label="Gross Margin <= -0.1\nentropy = 1.52\nsamples = 5\nvalue = [1, 0, 2, 2]\nclass = 2", fillcolor="#ffffff"] ;
736 -> 740 ;
741 [label="PE <= 0.21\nentropy = 1.0\nsamples = 2\nvalue = [1, 0, 0, 1]\nclass = 0", fillcolor="#ffffff"] ;
740 -> 741 ;
742 [label="entropy = 0.0\nsamples = 1\nvalue = [1, 0, 0, 0]\nclass = 0", fillcolor="#e58139"] ;
741 -> 742 ;
743 [label="entropy = 0.0\nsamples = 1\nvalue = [0, 0, 0, 1]\nclass = 3", fillcolor="#d739e5"] ;
741 -> 743 ;
744 [label="Operating Margin <= 0.04\nentropy = 0.92\nsamples = 3\nvalue = [0, 0, 2, 1]\nclass = 2", fillcolor="#9ccef2"] ;
740 -> 744 ;
745 [label="entropy = 0.0\nsamples = 1\nvalue = [0, 0, 0, 1]\nclass = 3", fillcolor="#d739e5"] ;
744 -> 745 ;
746 [label="entropy = 0.0\nsamples = 2\nvalue = [0, 0, 2, 0]\nclass = 2", fillcolor="#399de5"] ;
744 -> 746 ;
747 [label="entropy = 0.0\nsamples = 2\nvalue = [0, 0, 2, 0]\nclass = 2", fillcolor="#399de5"] ;
735 -> 747 ;
748 [label="entropy = 0.0\nsamples = 2\nvalue = [0, 2, 0, 0]\nclass = 1", fillcolor="#47e539"] ;
734 -> 748 ;
749 [label="PE <= -0.05\nentropy = 0.81\nsamples = 4\nvalue = [0, 0, 3, 1]\nclass = 2", fillcolor="#7bbeee"] ;
733 -> 749 ;
750 [label="entropy = 0.0\nsamples = 2\nvalue = [0, 0, 2, 0]\nclass = 2", fillcolor="#399de5"] ;
749 -> 750 ;
751 [label="PE <= -0.02\nentropy = 1.0\nsamples = 2\nvalue = [0, 0, 1, 1]\nclass = 2", fillcolor="#ffffff"] ;
749 -> 751 ;
752 [label="entropy = 0.0\nsamples = 1\nvalue = [0, 0, 1, 0]\nclass = 2", fillcolor="#399de5"] ;
751 -> 752 ;
753 [label="entropy = 0.0\nsamples = 1\nvalue = [0, 0, 0, 1]\nclass = 3", fillcolor="#d739e5"] ;
751 -> 753 ;
754 [label="Profit Margin <= 1.05\nentropy = 0.92\nsamples = 3\nvalue = [1, 2, 0, 0]\nclass = 1", fillcolor="#a3f29c"] ;
690 -> 754 ;
755 [label="entropy = 0.0\nsamples = 2\nvalue = [0, 2, 0, 0]\nclass = 1", fillcolor="#47e539"] ;
754 -> 755 ;
756 [label="entropy = 0.0\nsamples = 1\nvalue = [1, 0, 0, 0]\nclass = 0", fillcolor="#e58139"] ;
754 -> 756 ;
757 [label="Operating Margin <= 0.44\nentropy = 1.99\nsamples = 192\nvalue = [50, 48, 55, 39]\nclass = 2", fillcolor="#f8fcfe"] ;
569 -> 757 ;
758 [label="Profit Margin <= 0.82\nentropy = 1.96\nsamples = 85\nvalue = [21, 28, 22, 14]\nclass = 1", fillcolor="#edfdec"] ;
757 -> 758 ;
759 [label="Gross Margin <= 1.4\nentropy = 1.95\nsamples = 80\nvalue = [21, 27, 20, 12]\nclass = 1", fillcolor="#ecfceb"] ;
758 -> 759 ;
760 [label="PE <= -0.13\nentropy = 1.97\nsamples = 70\nvalue = [17, 22, 19, 12]\nclass = 1", fillcolor="#f4fdf3"] ;
759 -> 760 ;
761 [label="After Tax ROE <= 1.04\nentropy = 1.83\nsamples = 30\nvalue = [8, 13, 3, 6]\nclass = 1", fillcolor="#d5f9d2"] ;
760 -> 761 ;
762 [label="Operating Margin <= 0.1\nentropy = 1.62\nsamples = 22\nvalue = [7, 11, 1, 3]\nclass = 1", fillcolor="#cef8ca"] ;
761 -> 762 ;
763 [label="Profit Margin <= 0.05\nentropy = 1.92\nsamples = 6\nvalue = [1, 2, 1, 2]\nclass = 1", fillcolor="#ffffff"] ;
762 -> 763 ;
764 [label="PE <= -0.3\nentropy = 1.5\nsamples = 4\nvalue = [1, 2, 1, 0]\nclass = 1", fillcolor="#c2f6bd"] ;
763 -> 764 ;
765 [label="Cash Ratio <= 0.17\nentropy = 1.0\nsamples = 2\nvalue = [1, 0, 1, 0]\nclass = 0", fillcolor="#ffffff"] ;
764 -> 765 ;
766 [label="entropy = 0.0\nsamples = 1\nvalue = [0, 0, 1, 0]\nclass = 2", fillcolor="#399de5"] ;
765 -> 766 ;
767 [label="entropy = 0.0\nsamples = 1\nvalue = [1, 0, 0, 0]\nclass = 0", fillcolor="#e58139"] ;
765 -> 767 ;
768 [label="entropy = 0.0\nsamples = 2\nvalue = [0, 2, 0, 0]\nclass = 1", fillcolor="#47e539"] ;
764 -> 768 ;
769 [label="entropy = 0.0\nsamples = 2\nvalue = [0, 0, 0, 2]\nclass = 3", fillcolor="#d739e5"] ;
763 -> 769 ;
770 [label="Cash Ratio <= 1.25\nentropy = 1.25\nsamples = 16\nvalue = [6, 9, 0, 1]\nclass = 1", fillcolor="#c8f7c4"] ;
762 -> 770 ;
771 [label="Profit Margin <= 0.48\nentropy = 1.23\nsamples = 15\nvalue = [5, 9, 0, 1]\nclass = 1", fillcolor="#b5f5b0"] ;
770 -> 771 ;
772 [label="Operating Margin <= 0.23\nentropy = 1.33\nsamples = 12\nvalue = [5, 6, 0, 1]\nclass = 1", fillcolor="#e5fbe3"] ;
771 -> 772 ;
773 [label="entropy = 0.0\nsamples = 1\nvalue = [0, 0, 0, 1]\nclass = 3", fillcolor="#d739e5"] ;
772 -> 773 ;
774 [label="Operating Margin <= 0.39\nentropy = 0.99\nsamples = 11\nvalue = [5, 6, 0, 0]\nclass = 1", fillcolor="#e0fbde"] ;
772 -> 774 ;
775 [label="Operating Margin <= 0.27\nentropy = 0.92\nsamples = 9\nvalue = [3, 6, 0, 0]\nclass = 1", fillcolor="#a3f29c"] ;
774 -> 775 ;
776 [label="entropy = 0.0\nsamples = 3\nvalue = [0, 3, 0, 0]\nclass = 1", fillcolor="#47e539"] ;
775 -> 776 ;
777 [label="Profit Margin <= 0.21\nentropy = 1.0\nsamples = 6\nvalue = [3, 3, 0, 0]\nclass = 0", fillcolor="#ffffff"] ;
775 -> 777 ;
778 [label="Gross Margin <= 0.49\nentropy = 0.81\nsamples = 4\nvalue = [3, 1, 0, 0]\nclass = 0", fillcolor="#eeab7b"] ;
777 -> 778 ;
779 [label="Gross Margin <= 0.36\nentropy = 1.0\nsamples = 2\nvalue = [1, 1, 0, 0]\nclass = 0", fillcolor="#ffffff"] ;
778 -> 779 ;
780 [label="entropy = 0.0\nsamples = 1\nvalue = [1, 0, 0, 0]\nclass = 0", fillcolor="#e58139"] ;
779 -> 780 ;
781 [label="entropy = 0.0\nsamples = 1\nvalue = [0, 1, 0, 0]\nclass = 1", fillcolor="#47e539"] ;
779 -> 781 ;
782 [label="entropy = 0.0\nsamples = 2\nvalue = [2, 0, 0, 0]\nclass = 0", fillcolor="#e58139"] ;
778 -> 782 ;
783 [label="entropy = 0.0\nsamples = 2\nvalue = [0, 2, 0, 0]\nclass = 1", fillcolor="#47e539"] ;
777 -> 783 ;
784 [label="entropy = 0.0\nsamples = 2\nvalue = [2, 0, 0, 0]\nclass = 0", fillcolor="#e58139"] ;
774 -> 784 ;
785 [label="entropy = 0.0\nsamples = 3\nvalue = [0, 3, 0, 0]\nclass = 1", fillcolor="#47e539"] ;
771 -> 785 ;
786 [label="entropy = 0.0\nsamples = 1\nvalue = [1, 0, 0, 0]\nclass = 0", fillcolor="#e58139"] ;
770 -> 786 ;
787 [label="Cash Ratio <= -0.57\nentropy = 1.91\nsamples = 8\nvalue = [1, 2, 2, 3]\nclass = 3", fillcolor="#f8defb"] ;
761 -> 787 ;
788 [label="Operating Margin <= 0.35\nentropy = 0.92\nsamples = 3\nvalue = [0, 0, 2, 1]\nclass = 2", fillcolor="#9ccef2"] ;
787 -> 788 ;
789 [label="Cash Ratio <= -0.75\nentropy = 1.0\nsamples = 2\nvalue = [0, 0, 1, 1]\nclass = 2", fillcolor="#ffffff"] ;
788 -> 789 ;
790 [label="entropy = 0.0\nsamples = 1\nvalue = [0, 0, 1, 0]\nclass = 2", fillcolor="#399de5"] ;
789 -> 790 ;
791 [label="entropy = 0.0\nsamples = 1\nvalue = [0, 0, 0, 1]\nclass = 3", fillcolor="#d739e5"] ;
789 -> 791 ;
792 [label="entropy = 0.0\nsamples = 1\nvalue = [0, 0, 1, 0]\nclass = 2", fillcolor="#399de5"] ;
788 -> 792 ;
793 [label="Operating Margin <= 0.16\nentropy = 1.52\nsamples = 5\nvalue = [1, 2, 0, 2]\nclass = 1", fillcolor="#ffffff"] ;
787 -> 793 ;
794 [label="entropy = 0.0\nsamples = 1\nvalue = [1, 0, 0, 0]\nclass = 0", fillcolor="#e58139"] ;
793 -> 794 ;
795 [label="PE <= -0.54\nentropy = 1.0\nsamples = 4\nvalue = [0, 2, 0, 2]\nclass = 1", fillcolor="#ffffff"] ;
793 -> 795 ;
796 [label="entropy = 0.0\nsamples = 2\nvalue = [0, 0, 0, 2]\nclass = 3", fillcolor="#d739e5"] ;
795 -> 796 ;
797 [label="entropy = 0.0\nsamples = 2\nvalue = [0, 2, 0, 0]\nclass = 1", fillcolor="#47e539"] ;
795 -> 797 ;
798 [label="Gross Margin <= 1.14\nentropy = 1.91\nsamples = 40\nvalue = [9, 9, 16, 6]\nclass = 2", fillcolor="#d2e9f9"] ;
760 -> 798 ;
799 [label="PE <= -0.06\nentropy = 1.94\nsamples = 36\nvalue = [8, 9, 13, 6]\nclass = 2", fillcolor="#e2f0fb"] ;
798 -> 799 ;
800 [label="entropy = 0.0\nsamples = 2\nvalue = [2, 0, 0, 0]\nclass = 0", fillcolor="#e58139"] ;
799 -> 800 ;
801 [label="After Tax ROE <= 0.6\nentropy = 1.92\nsamples = 34\nvalue = [6, 9, 13, 6]\nclass = 2", fillcolor="#dfeffb"] ;
799 -> 801 ;
802 [label="After Tax ROE <= -0.26\nentropy = 1.99\nsamples = 18\nvalue = [5, 4, 5, 4]\nclass = 0", fillcolor="#ffffff"] ;
801 -> 802 ;
803 [label="Profit Margin <= -0.67\nentropy = 1.56\nsamples = 7\nvalue = [2, 3, 0, 2]\nclass = 1", fillcolor="#dafad7"] ;
802 -> 803 ;
804 [label="entropy = 0.0\nsamples = 1\nvalue = [1, 0, 0, 0]\nclass = 0", fillcolor="#e58139"] ;
803 -> 804 ;
805 [label="PEG <= 1.45\nentropy = 1.46\nsamples = 6\nvalue = [1, 3, 0, 2]\nclass = 1", fillcolor="#d1f8ce"] ;
803 -> 805 ;
806 [label="PE <= 1.47\nentropy = 0.97\nsamples = 5\nvalue = [0, 3, 0, 2]\nclass = 1", fillcolor="#c2f6bd"] ;
805 -> 806 ;
807 [label="PEG <= -0.07\nentropy = 1.0\nsamples = 4\nvalue = [0, 2, 0, 2]\nclass = 1", fillcolor="#ffffff"] ;
806 -> 807 ;
808 [label="PE <= 1.23\nentropy = 0.92\nsamples = 3\nvalue = [0, 2, 0, 1]\nclass = 1", fillcolor="#a3f29c"] ;
807 -> 808 ;
809 [label="entropy = 0.0\nsamples = 2\nvalue = [0, 2, 0, 0]\nclass = 1", fillcolor="#47e539"] ;
808 -> 809 ;
810 [label="entropy = 0.0\nsamples = 1\nvalue = [0, 0, 0, 1]\nclass = 3", fillcolor="#d739e5"] ;
808 -> 810 ;
811 [label="entropy = 0.0\nsamples = 1\nvalue = [0, 0, 0, 1]\nclass = 3", fillcolor="#d739e5"] ;
807 -> 811 ;
812 [label="entropy = 0.0\nsamples = 1\nvalue = [0, 1, 0, 0]\nclass = 1", fillcolor="#47e539"] ;
806 -> 812 ;
813 [label="entropy = 0.0\nsamples = 1\nvalue = [1, 0, 0, 0]\nclass = 0", fillcolor="#e58139"] ;
805 -> 813 ;
814 [label="After Tax ROE <= 0.23\nentropy = 1.79\nsamples = 11\nvalue = [3, 1, 5, 2]\nclass = 2", fillcolor="#cee6f8"] ;
802 -> 814 ;
815 [label="Gross Margin <= 0.27\nentropy = 1.41\nsamples = 8\nvalue = [3, 1, 4, 0]\nclass = 2", fillcolor="#d7ebfa"] ;
814 -> 815 ;
816 [label="entropy = 0.0\nsamples = 2\nvalue = [0, 0, 2, 0]\nclass = 2", fillcolor="#399de5"] ;
815 -> 816 ;
817 [label="Profit Margin <= 0.39\nentropy = 1.46\nsamples = 6\nvalue = [3, 1, 2, 0]\nclass = 0", fillcolor="#f8e0ce"] ;
815 -> 817 ;
818 [label="PEG <= -0.41\nentropy = 0.81\nsamples = 4\nvalue = [3, 0, 1, 0]\nclass = 0", fillcolor="#eeab7b"] ;
817 -> 818 ;
819 [label="entropy = 0.0\nsamples = 2\nvalue = [2, 0, 0, 0]\nclass = 0", fillcolor="#e58139"] ;
818 -> 819 ;
820 [label="PE <= 0.68\nentropy = 1.0\nsamples = 2\nvalue = [1, 0, 1, 0]\nclass = 0", fillcolor="#ffffff"] ;
818 -> 820 ;
821 [label="entropy = 0.0\nsamples = 1\nvalue = [1, 0, 0, 0]\nclass = 0", fillcolor="#e58139"] ;
820 -> 821 ;
822 [label="entropy = 0.0\nsamples = 1\nvalue = [0, 0, 1, 0]\nclass = 2", fillcolor="#399de5"] ;
820 -> 822 ;
823 [label="Cash Ratio <= 1.22\nentropy = 1.0\nsamples = 2\nvalue = [0, 1, 1, 0]\nclass = 1", fillcolor="#ffffff"] ;
817 -> 823 ;
824 [label="entropy = 0.0\nsamples = 1\nvalue = [0, 0, 1, 0]\nclass = 2", fillcolor="#399de5"] ;
823 -> 824 ;
825 [label="entropy = 0.0\nsamples = 1\nvalue = [0, 1, 0, 0]\nclass = 1", fillcolor="#47e539"] ;
823 -> 825 ;
826 [label="After Tax ROE <= 0.27\nentropy = 0.92\nsamples = 3\nvalue = [0, 0, 1, 2]\nclass = 3", fillcolor="#eb9cf2"] ;
814 -> 826 ;
827 [label="entropy = 0.0\nsamples = 1\nvalue = [0, 0, 1, 0]\nclass = 2", fillcolor="#399de5"] ;
826 -> 827 ;
828 [label="entropy = 0.0\nsamples = 2\nvalue = [0, 0, 0, 2]\nclass = 3", fillcolor="#d739e5"] ;
826 -> 828 ;
829 [label="PE <= 1.03\nentropy = 1.65\nsamples = 16\nvalue = [1, 5, 8, 2]\nclass = 2", fillcolor="#c9e4f8"] ;
801 -> 829 ;
